{"shapefile": "./Ryder_32_09.exp", "epochs": 20000, "learning_rate": 0.001, "loss_function": "MSE", "data": {"ISSM": {"data_path": "./Models/Ryder_issm2024-Dec-19_3.mat", "data_size": {"u": 400, "v": 400, "s": 400, "H": null, "C": null}}, "ft": {"data_path": "./Ryder_xyz_500.mat", "data_size": {"H": 800}, "name_map": {"H": "thickness"}, "X_map": {"x": "x", "y": "y"}, "source": "mat"}}, "num_collocation_points": 800, "equations": {"MOLHO": {"scalar_variables": {"B": 100000000.0}, "data_weights": [10000000000.0, 10000000000.0, 10000000000.0, 10000000000.0, 1e-05, 1e-06, 1e-08], "output_lb": [-6.341958396752917e-06, -6.341958396752917e-06, -6.341958396752917e-06, -6.341958396752917e-06, -1000.0, 10.0, 0.01], "output_ub": [6.341958396752917e-06, 6.341958396752917e-06, 6.341958396752917e-06, 6.341958396752917e-06, 4000.0, 4000.0, 10000.0], "variable_lb": [-6.341958396752917e-06, -6.341958396752917e-06, -6.341958396752917e-06, -6.341958396752917e-06, -1000.0, 10.0, 0.01], "variable_ub": [6.341958396752917e-06, 6.341958396752917e-06, 6.341958396752917e-06, 6.341958396752917e-06, 4000.0, 4000.0, 10000.0]}}, "fft": true, "sigma": 5, "num_fourier_feature": 30, "activation": "tanh", "initializer": "Glorot uniform", "num_neurons": 20, "num_layers": 6, "input": ["y", "x"], "save_path": "./PINNs/Ryder_issm2024-Dec-19_3_pinn25-Feb-04_4G", "is_save": true, "is_plot": true, "B": [[2.8713383232276044, 7.989930772561902, 2.1145824052399034, 2.025542215624717, -0.26649372436652674, -2.6733122655858557, -5.1288507879238265, 2.830706654618349, -1.8016770123635575, 5.66891235636896, -0.17694924944374485, -1.7093183324361563, 7.656942826304698, 0.1615426631881736, 0.5881596489829332, -2.7349939308776805, 1.8344339504861669, 7.675178579787446, -2.206528592956128, -10.579027932470188, -7.06753590703647, 4.203160927437478, -7.514626886554936, 4.6375859912513855, -3.208763421138785, -1.783776040132761, -8.68088913171866, -0.7943237099183588, -9.589386504999716, -3.0534832224504367], [-7.558723362642786, -2.5113853186180393, -5.869482192151555, 1.4459199615574503, -9.622944542476459, 0.9108678349097468, 8.173979737042247, -3.9962516047558254, 9.864951499180126, -7.507857863503392, -3.8366128408030598, 1.141808830267996, 3.853851553325718, -8.533614205711842, -1.6803850786878016, 6.9877519445444065, -5.028577508467812, 5.464986009742755, -2.5462215196535434, -7.762009720031271, 7.052992854971329, 0.3740408690242273, 0.10142166629311294, 2.882920761153451, 6.504198813533041, -7.204000299588019, 7.5691265921430695, -2.618878508051028, -3.959154052342569, -9.505695057653885]]}