{"shapefile": "./Ryder_32_09.exp", "epochs": 150000, "learning_rate": 0.001, "loss_function": "MSE", "data": {"ISSM": {"data_path": "./Models/Ryder_issm2024-Dec-19_3.mat", "data_size": {"u": 8000, "v": 8000, "s": 8000, "H": null, "C": null}}, "ft": {"data_path": "Ryder_xyz_500.mat", "data_size": {"H": 8000}, "X_map": {"x": "x", "y": "y"}, "name_map": {"H": "thickness"}, "source": "mat"}}, "num_collocation_points": 16000, "equations": {"MOLHO": {"scalar_variables": {"B": 200000000.0}, "data_weights": [99451929600.0, 99451929600.0, 99451929600.0, 99451929600.0, 1e-06, 1e-06, 1e-08], "pde_weights": [1e-16, 1e-16, 1e-16, 1e-16], "output_lb": [-4.54292703799824e-06, -4.54292703799824e-06, -4.54292703799824e-06, -4.54292703799824e-06, -1000.0, 10.0, 0.01], "output_ub": [4.54292703799824e-06, 4.54292703799824e-06, 4.54292703799824e-06, 4.54292703799824e-06, 4000.0, 4000.0, 10000.0], "variable_lb": [-4.54292703799824e-06, -4.54292703799824e-06, -4.54292703799824e-06, -4.54292703799824e-06, -1000.0, 10.0, 0.01], "variable_ub": [4.54292703799824e-06, 4.54292703799824e-06, 4.54292703799824e-06, 4.54292703799824e-06, 4000.0, 4000.0, 10000.0]}}, "activation": "tanh", "initializer": "Glorot uniform", "num_neurons": 20, "num_layers": 6, "input": ["y", "x"], "fft": true, "sigma": 5, "num_fourier_feature": 30, "save_path": "./PINNs/Ryder_issm2024-Dec-19_3_pinn25-Feb-07_9G", "is_save": true, "is_plot": true, "B": [[-0.0025626016067057016, 2.801731648575003, 5.485983474056421, 1.861930146028934, -8.97518900703586, 2.616868949764296, -0.3495485284987295, -1.2325402551919131, 2.1910768623150685, -4.49380173316115, 3.9533184150935967, -3.635882992632621, 6.382848310942176, 7.9041566755727715, -8.82656236624755, -7.104781003230696, 2.2570921664497194, 1.226086822558549, -6.555573144314525, 1.784730355979983, 5.592829378832488, -4.845894863374459, -0.1259123502636066, 1.7742819836606532, -2.327621584971582, -8.106151961293211, 1.2327640864959015, 3.8490888362732933, -1.8234289540532675, -2.1906075164886056], [4.7374598326780095, 4.934970598397795, -8.309523149117293, -1.4071605424624059, -6.200983818029941, 4.396249280987005, -2.9044291797296236, -0.2413047576838173, -5.160926535170941, 8.537601533304576, -4.0861397800346175, -3.5263459475220102, -10.656401708089478, 8.067878493628085, -8.017861747200103, -2.8896100043008666, 5.903318653930558, 8.677940729444186, 2.645270750321564, -2.8887725366001753, -5.287417399953767, 3.166998441006974, -8.924051820567854, 1.935049211700253, 8.388615912003905, 1.6403138612451964, 4.0766074517398385, 5.395137011500381, 3.1779527272570225, 0.617370539770148]]}