{"shapefile": "./Ryder_32_09.exp", "epochs": 50000, "learning_rate": 0.001, "loss_function": "MSE", "data": {"ISSM": {"data_path": "./Models/Ryder_issm2024-Dec-19_3.mat", "data_size": {"u": 8000, "v": 8000, "s": 8000, "H": null, "C": null}}, "ft": {"data_path": "Ryder_xyz_ds.mat", "data_size": {"H": 10000}, "X_map": {"x": "x", "y": "y"}, "name_map": {"H": "thickness"}, "source": "mat"}, "velbase": {"data_path": "./Ryder_vel_base_ms.mat", "data_size": {"u_base": 8000, "v_base": 8000}, "name_map": {"u_base": "md_u_base", "v_base": "md_v_base"}, "X_map": {"x": "x", "y": "y"}, "source": "mat"}}, "num_collocation_points": 16000, "equations": {"MOLHO": {"scalar_variables": {"B": 200000000.0}, "data_weights": [99451929600.0, 99451929600.0, 9945192960000.0, 9945192960000.0, 5e-06, 1e-05, 1e-08], "output_lb": [-0.00031709791983764585, -0.00031709791983764585, -3.1709791983764586e-06, -3.1709791983764586e-06, -1000.0, 10.0, 0.01], "output_ub": [0.00031709791983764585, 0.00031709791983764585, 3.1709791983764586e-06, 3.1709791983764586e-06, 4000.0, 4000.0, 10000.0], "variable_lb": [-0.00031709791983764585, -0.00031709791983764585, -3.1709791983764586e-06, -3.1709791983764586e-06, -1000.0, 10.0, 0.01], "variable_ub": [0.00031709791983764585, 0.00031709791983764585, 3.1709791983764586e-06, 3.1709791983764586e-06, 4000.0, 4000.0, 10000.0]}}, "activation": "tanh", "initializer": "Glorot uniform", "num_neurons": 20, "num_layers": 6, "input": ["y", "x"], "fft": true, "sigma": 5, "num_fourier_feature": 30, "save_path": "./PINNs/Ryder_issm2024-Dec-19_3_pinn25-Jan-28_2G", "is_save": true, "is_plot": true, "B": [[-5.951570968777392, 3.6601107973388416, -2.1497342246634084, -7.4142466459465215, 1.5893533081593045, -1.8071343247908553, 2.054533314664246, 3.516631838807449, 1.6926237207006911, -1.2621360292435815, -1.0681827915175695, -10.722320354656746, 1.3864217477041039, -5.402017413275264, -0.5239221365994052, -2.265070035730296, -0.5747830526049889, 3.0124844831190343, -0.7933086256889772, -11.248685760144628, 0.25636841194976273, -4.2532181895392505, 5.494204368022394, 0.6515974416571603, 5.260753424826672, 11.296797380233485, 4.575187451408921, -1.3172306789230983, 5.034660763649759, 0.03817192516522916], [-5.065926760762079, -3.263287980628502, 2.012662092234071, 9.342286587858924, -5.5754672260653315, -7.324394950303881, -1.703321689340744, -8.725604988320745, 2.5295924870611586, -5.568350574545918, 6.735875751034421, -6.6187564857647985, -5.943609421997946, -5.204718561920628, 7.660034031675701, 6.981870737326278, 6.3033253451658355, -1.3947191647785249, 2.3434257046013003, -3.9839215061888993, 6.538321898230986, 2.601643303055825, 1.8125618241550956, -3.215245341321527, -2.0239092083620474, 0.35649517113686296, -10.308350437236234, -3.427094430797043, 1.7171127598441869, 7.935916418412841]]}