{"data": {"ISSM": {"data_path": "./Models/Ryder_test_I05-Dec-2024_2.mat", "data_size": {"u": 5000, "v": 5000, "s": 5000, "H": 5000, "C": 5000, "vel": 5000}}}, "epochs": 100000, "learning_rate": 0.0005, "loss_function": "MSE", "save_path": "./PINNs/Ryder_test_I05-Dec-2024_2_P16-Dec-24_1", "is_save": true, "is_plot": true, "activation": "tanh", "initializer": "Glorot uniform", "num_neurons": 20, "num_layers": 6, "input": ["y", "x"], "shapefile": "./Ryder_32_09.exp", "num_collocation_points": 10000, "equations": {"SSA": {"scalar_variables": {"B": 200000000.0, "n": 4}, "data_weights": [99451929600.0, 99451929600.0, 5e-06, 1e-06, 1e-08]}}, "fft": true, "sigma": 5, "num_fourier_feature": 30, "B": [[-0.6157725828859707, -5.477484870497551, -3.072498333890505, -4.709458205839599, 3.191336938678202, -1.3288466188604193, 2.1296040287962867, 4.269120674434677, -7.092342736014448, 0.6871141420296979, -5.699467107302695, 6.105550020097477, -6.584805584956115, -3.154162226604031, -1.498387696951413, -7.08334091851334, 5.657288074777495, 2.944098138110639, -1.5787425711138692, -6.804786979561878, -0.7679478064885524, 9.217145570248583, -2.875530329331713, -2.2449625006125826, -0.6697887949181511, -1.2175872477437262, 4.385451280600282, 4.561568664751314, 3.0465737544469946, 2.283712264386312], [-0.8383789395311846, 1.9843667813253398, 4.650648441414042, 0.18085603526433655, -3.9141613628530703, -0.38854617836361804, 0.8701577754771652, 0.8130627957254871, 3.36082277821194, -5.46164950016016, 0.2903823481984511, -0.9830634249986749, 7.326557007670145, -10.364563827195411, -0.8279068091113001, -7.127424182711547, 1.2798777999815603, -0.009150353446634804, 0.604004203677754, -6.7294932390110525, 0.470265187300994, 1.6187739549270832, 1.2155611777186148, -4.61894458883671, -1.1203146041525733, 10.154472767848874, 4.160520751290774, -4.110125021212314, -1.822416511307599, 3.869591187847993]]}