{"data": {"ISSM": {"data_path": "./Models/Ryder_issm2024-Dec-19_3.mat", "data_size": {"u": 5000, "v": 5000, "s": 5000, "H": null, "C": null}}, "ft": {"data_path": "./Ryder_xyz_ds.mat", "data_size": {"H": 10000}, "name_map": {"H": "thickness"}, "X_map": {"x": "x", "y": "y"}, "source": "mat"}}, "epochs": 200000, "learning_rate": 0.001, "loss_function": "MSE", "save_path": "./PINNs/Ryder_issm2024-Dec-19_3_pinn25-Jan-06_2G", "is_save": true, "is_plot": true, "activation": "tanh", "initializer": "Glorot uniform", "num_neurons": 20, "num_layers": 6, "input": ["y", "x"], "shapefile": "./Ryder_32_09.exp", "num_collocation_points": 10000, "equations": {"MOLHO": {"scalar_variables": {"B": 200000000.0}, "data_weights": [99451929600.0, 99451929600.0, 99451929600.0, 99451929600.0, 5e-06, 1e-06, 1e-08]}}, "fft": true, "sigma": 5, "num_fourier_feature": 30, "B": [[3.606313492313845, -5.956997146237607, 8.154216021690377, 1.1730166833976143, -0.8129260282687539, -0.11884032309545352, 9.138777330740913, 3.585944452779915, -5.356011998547227, 1.9730266833210064, -2.9621747804339185, -3.2874317690459423, 7.315559049388389, 2.606006032854265, 0.793945094435331, -1.6289740843568523, 1.946506528116398, -5.242120805433031, -2.741681596987269, -1.583163067027199, 2.408454675905028, -6.193218317142243, -2.8382829385242845, -3.5040211652551347, -5.1848759100833846, 8.294387161054171, -3.5890731467388672, -4.6497905078965776, -4.149352432497592, 1.1565591130325061], [-0.4571240088000588, 2.0781530355868223, -3.0672619559830956, -3.0385075144613256, -1.1803841656030318, -8.943177970183193, -2.241018058390848, -1.3818140222256514, -0.20944386046822722, -8.61935438515966, -8.073990347537169, -0.7435031918751023, -10.522744199702172, -0.14086293751948112, 6.11900584719173, 9.363429467314726, -1.0999665782631627, 1.5647941523353146, -3.222872357443069, 0.6938801636945362, -4.171498526570284, 5.564805889785697, 4.067198032783868, -1.317322804692926, -2.2394841289627805, 2.7218514392835145, -4.552140579514695, -2.022401834150824, 0.526310757364946, 2.360961376010127]]}