{"shapefile": "./Ryder_32_09.exp", "epochs": 100000, "learning_rate": 0.001, "loss_function": "MSE", "data": {"ISSM": {"data_path": "./Models/Ryder_issm2024-Dec-19_3.mat", "data_size": {"u": 8000, "v": 8000, "s": 8000, "H": null, "C": 8000}}, "ft": {"data_path": "Ryder_xyz_500.mat", "data_size": {"H": 8000}, "X_map": {"x": "x", "y": "y"}, "name_map": {"H": "thickness"}, "source": "mat"}}, "num_collocation_points": 16000, "equations": {"MOLHO": {"scalar_variables": {"B": 150000000.0}, "data_weights": [10000000000.0, 10000000000.0, 10000000000.0, 10000000000.0, 1e-05, 1e-06, 1e-08], "output_lb": [-6.341958396752917e-06, -6.341958396752917e-06, -6.341958396752917e-06, -6.341958396752917e-06, -1000.0, 10.0, 0.01], "output_ub": [6.341958396752917e-06, 6.341958396752917e-06, 6.341958396752917e-06, 6.341958396752917e-06, 4000.0, 4000.0, 10000.0], "variable_lb": [-6.341958396752917e-06, -6.341958396752917e-06, -6.341958396752917e-06, -6.341958396752917e-06, -1000.0, 10.0, 0.01], "variable_ub": [6.341958396752917e-06, 6.341958396752917e-06, 6.341958396752917e-06, 6.341958396752917e-06, 4000.0, 4000.0, 10000.0]}}, "activation": "tanh", "initializer": "Glorot uniform", "num_neurons": 20, "num_layers": 6, "input": ["y", "x"], "fft": true, "sigma": 5, "num_fourier_feature": 30, "save_path": "./PINNs/Ryder_issm2024-Dec-19_3_pinn25-Feb-04_6G", "is_save": true, "is_plot": true, "B": [[0.4375044338022171, -3.86662342634378, 0.11555388973943122, 7.3223323691052205, 3.2084977883879198, 3.8090434933997397, -5.075924279435821, 2.448180184732741, -3.9148261908215054, -6.265720436425516, 0.7850451390769981, 1.049060345657649, 0.19326384079518422, 1.1847125230841822, -7.654516817751048, 2.343368762303214, -1.2860243703927088, -11.193704470453635, -1.5355845878204972, -5.139817387302598, -1.7303399039667733, -2.619084277391794, -2.918844986061002, -0.4688593315974585, -3.7275953352333797, 0.09095176012661108, 4.482525810933034, -7.363836092337362, -4.260673598009062, 1.150788132759969], [-2.9728966033669564, -6.402304414552762, 10.325042202980732, -5.60862604616557, -5.996195349280421, 1.1888881232219977, 0.06283352015903723, 4.320538691478702, 3.9308471507209886, 5.013361649266555, 6.705691360336024, 2.461299500293795, -4.568791423639079, -0.15947807965538102, -1.280744583038559, 3.394272534941611, -7.349493069336848, 0.4643182296608823, 7.553809945901262, 5.080894876695616, -1.6575768630601555, -1.1993963630382192, 7.120436490777654, -0.8225059670776622, -5.590067264327121, -2.1549977044704542, -2.70832285683099, 1.1273594950262023, -1.2092804468666452, -2.526638799410199]]}