{"data": {"ISSM": {"data_path": "./Models/Ryder_test_I05-Dec-2024_2.mat", "data_size": {"u": 4000, "v": 4000, "s": 4000, "H": null, "C": 4000, "vel": 4000}}}, "epochs": 60000, "learning_rate": 0.0005, "loss_function": "MSE", "save_path": "./PINNs/Ryder_test_I05-Dec-2024_2_P05-Dec-24_3", "is_save": true, "is_plot": true, "activation": "tanh", "initializer": "Glorot uniform", "num_neurons": 20, "num_layers": 6, "input": ["y", "x"], "shapefile": "./Ryder_32_09.exp", "num_collocation_points": 8000, "equations": {"MOLHO": {"scalar_variables": {"B": 200000000.0}, "data_weights": [99451929600.0, 99451929600.0, 99451929600.0, 99451929600.0, 1e-06, 1e-06, 1e-08]}}, "fft": true, "sigma": 5, "num_fourier_feature": 30, "B": [[-7.076407134866683, -1.1859295533636935, 5.02328686341534, -5.844667354204297, -6.881592321469334, -2.591618656245096, 5.032549244079819, 8.676484043489285, 6.872647038277667, -15.402655189669932, 5.408299433509019, -5.473133684787185, 2.1166068641861386, 9.388732317530948, 3.81924607083022, 4.263665164888016, 7.495087031594667, -4.877253906396131, 10.860263797137172, -6.085301418246624, -3.4319426104955, -3.67462752472748, -0.6620368595393188, -1.9292998568270112, 5.060994973992078, 1.5521621710879607, -0.18795638600726997, -5.394306081901213, -1.1396835337124904, 3.8600982435135673], [3.139337814264263, -3.2539762619970745, 2.415992490892462, -2.8308067610590477, -3.294082107567265, 2.5859337056897163, 4.736223649188665, -6.835086725686457, -11.049591880978205, -1.7216949209965027, 2.904805779672163, 0.2988555850825023, 0.06365888127871337, -2.5819981514094414, 3.464377313914009, -8.322811947409324, -9.188116417679726, 6.9558850186018475, 2.8612957528714573, -3.6454119850629896, -5.012938945195558, -0.527589491702594, 0.8960243566386134, 0.3090830923269799, -1.279268734710388, 1.7439697329029777, -0.2084811406777871, 4.587980437342576, 4.433420043436697, -6.636829027098146]]}