{"shapefile": "./Ryder_32_09.exp", "epochs": 20000, "learning_rate": 0.001, "loss_function": "MSE", "data": {"ISSM": {"data_path": "./Models/Ryder_issm2024-Dec-19_3.mat", "data_size": {"u": 8000, "v": 8000, "s": 8000, "H": null, "C": 8000}}, "ft": {"data_path": "Ryder_xyz_ds.mat", "data_size": {"H": 10000}, "X_map": {"x": "x", "y": "y"}, "name_map": {"H": "thickness"}, "source": "mat"}}, "num_collocation_points": 16000, "equations": {"MOLHO": {"scalar_variables": {"B": 200000000.0}, "data_weights": [99451929600.0, 99451929600.0, 99451929600.0, 99451929600.0, 1e-06, 1e-06, 1e-08], "output_lb": [-3.1709791983764586e-06, -3.1709791983764586e-06, -3.1709791983764586e-06, -3.1709791983764586e-06, -1000.0, 10.0, 0.01], "output_ub": [3.1709791983764586e-06, 3.1709791983764586e-06, 3.1709791983764586e-06, 3.1709791983764586e-06, 4000.0, 4000.0, 10000.0], "variable_lb": [-3.1709791983764586e-06, -3.1709791983764586e-06, -3.1709791983764586e-06, -3.1709791983764586e-06, -1000.0, 10.0, 0.01], "variable_ub": [3.1709791983764586e-06, 3.1709791983764586e-06, 3.1709791983764586e-06, 3.1709791983764586e-06, 4000.0, 4000.0, 10000.0]}}, "activation": "tanh", "initializer": "Glorot uniform", "num_neurons": 20, "num_layers": 6, "input": ["y", "x"], "fft": true, "sigma": 5, "num_fourier_feature": 30, "save_path": "./PINNs/Ryder_issm2024-Dec-19_3_pinn25-Jan-29_4G", "is_save": true, "is_plot": true, "B": [[-0.8535936733108278, -1.6569735318114585, -1.3959384687516256, 1.4798937385815858, 9.33553875982032, -5.763914613885063, -4.577606028344921, 4.173221232857075, -2.192146911712405, -2.3030377881115065, -1.7965859396172077, -1.7985269875649164, 0.5238839377076147, 1.4681042338385433, -5.225129192830731, 5.671537885463838, -4.003400488981086, -3.7853024602424274, 4.640174275389159, 11.613118310916843, -4.350991576970188, -5.3164814500744715, 11.04066270905734, -0.7239245343867329, -1.2492413642527598, -0.4257770977626845, 1.9615891332374855, -5.263294528615145, 4.648118577502685, -4.071011403834074], [-0.2555256022261793, 0.14516248953106045, -5.231231204430533, -5.705092013681209, -9.31745730807797, 4.078265109513558, -4.234383563017291, 2.813750774196668, -2.5072771919914394, -4.575757803837278, 0.23187118801122553, -4.657533953852236, -2.0696551850900486, -8.055073079236557, 0.049587562871244106, 15.43824743383659, 0.6637643699603989, -2.4910325670136544, 2.6651959549226136, -5.447729180719744, -3.024750659243232, 3.2782269191567783, 5.982345161398905, -3.9874396395665683, -1.282436884047049, 3.25962509063205, 2.877030940920716, -2.8513740953944575, 4.462104370245371, -3.1559347237615576]]}