{"shapefile": "./Ryder_32_09.exp", "epochs": 20000, "learning_rate": 0.001, "loss_function": "MSE", "data": {"ISSM": {"data_path": "./Models/Ryder_issm2024-Dec-19_3.mat", "data_size": {"u": 800, "v": 800, "s": 800, "H": null, "C": null}}, "ft": {"data_path": "./Ryder_xyz_ds.mat", "data_size": {"H": 1000}, "name_map": {"H": "thickness"}, "X_map": {"x": "x", "y": "y"}, "source": "mat"}, "velbase": {"data_path": "./Ryder_vel_base.mat", "data_size": {"u_base": 800, "v_base": 800}, "name_map": {"u_base": "md_u_base", "v_base": "md_v_base"}, "X_map": {"x": "x", "y": "y"}, "source": "mat"}}, "num_collocation_points": 1600, "equations": {"MOLHO": {"scalar_variables": {"B": 200000000.0}, "data_weights": [99451929600.0, 99451929600.0, 9945192960000.0, 9945192960000.0, 5e-06, 1e-05, 1e-08], "output_lb": [-0.00031709791983764585, -0.00031709791983764585, -3.1709791983764586e-06, -3.1709791983764586e-06, -1000.0, 10.0, 0.01], "output_ub": [0.00031709791983764585, 0.00031709791983764585, 3.1709791983764586e-06, 3.1709791983764586e-06, 4000.0, 4000.0, 10000.0], "variable_lb": [-0.00031709791983764585, -0.00031709791983764585, -3.1709791983764586e-06, -3.1709791983764586e-06, -1000.0, 10.0, 0.01], "variable_ub": [0.00031709791983764585, 0.00031709791983764585, 3.1709791983764586e-06, 3.1709791983764586e-06, 4000.0, 4000.0, 10000.0]}}, "fft": true, "sigma": 5, "num_fourier_feature": 30, "activation": "tanh", "initializer": "Glorot uniform", "num_neurons": 20, "num_layers": 6, "input": ["y", "x"], "save_path": "./PINNs/Ryder_issm2024-Dec-19_3_pinn25-Jan-16_1G", "is_save": true, "is_plot": true, "B": [[-0.4152667407127528, 3.956907296247238, 2.6529913917864394, -7.171226043501576, -3.5377751094090755, -3.8619435169711975, 1.5928310591872412, 6.03967487636403, -7.311683078058381, 4.193800400817398, 2.4322535310936977, -3.0228284654118593, 4.159835108797643, 1.135459443050842, -5.6518821323374695, 4.0371346942110975, 2.749633529888178, -0.9828700544911055, 5.454932169690348, 3.9287490290473652, 8.627496478700753, 0.201943832218017, 1.4178131905839733, -0.09498431577777673, 1.8618786577087156, 4.29958145741212, -3.2363080667877093, -3.3995521774593485, -1.118220945993809, 10.460871533528797], [-8.743517128887216, -0.9018711438689863, -1.410068979803241, 1.9859297864111802, -4.307772340411739, -4.00841171716965, -9.640436149445858, -6.007314755623387, 0.920998494816918, -2.3505180819139566, -4.0178359657462535, 3.812746996414669, 0.09346650234016818, 8.383042857295278, -5.5934056747094685, 8.416369250709986, -7.2994289199479905, -0.7259271546015307, 2.986903978252917, 4.3264187967423435, 0.07862879101127435, -1.9839986822752067, 4.185245753911043, 4.732873242813036, -3.9318736735783926, -2.8361855104329843, 0.9545664445725289, 3.4524490171432114, -8.606266890903477, 2.4836644911237764]]}