{"shapefile": "./Ryder_32_09.exp", "epochs": 100000, "learning_rate": 0.001, "loss_function": "MSE", "data": {"ISSM": {"data_path": "./Models/Ryder_issm2024-Dec-19_3.mat", "data_size": {"u": 8000, "v": 8000, "s": 8000, "H": null, "C": null}}, "ft": {"data_path": "Ryder_xyz_500.mat", "data_size": {"H": 8000}, "X_map": {"x": "x", "y": "y"}, "name_map": {"H": "thickness"}, "source": "mat"}, "velbase": {"data_path": "./Ryder_vel_base_ms.mat", "data_size": {"u_base": 8000, "v_base": 8000}, "name_map": {"u_base": "md_u_base", "v_base": "md_v_base"}, "X_map": {"x": "x", "y": "y"}, "source": "mat"}}, "num_collocation_points": 16000, "equations": {"MOLHO": {"scalar_variables": {"B": 200000000.0}, "data_weights": [99451929600.0, 99451929600.0, 99451929600.0, 99451929600.0, 5e-06, 5e-06, 1e-08], "output_lb": [-4.54292703799824e-06, -4.54292703799824e-06, -4.54292703799824e-06, -4.54292703799824e-06, -1000.0, 10.0, 0.01], "output_ub": [4.54292703799824e-06, 4.54292703799824e-06, 4.54292703799824e-06, 4.54292703799824e-06, 4000.0, 4000.0, 10000.0], "variable_lb": [-4.54292703799824e-06, -4.54292703799824e-06, -4.54292703799824e-06, -4.54292703799824e-06, -1000.0, 10.0, 0.01], "variable_ub": [4.54292703799824e-06, 4.54292703799824e-06, 4.54292703799824e-06, 4.54292703799824e-06, 4000.0, 4000.0, 10000.0]}}, "activation": "tanh", "initializer": "Glorot uniform", "num_neurons": 20, "num_layers": 6, "input": ["y", "x"], "fft": true, "sigma": 5, "num_fourier_feature": 30, "save_path": "./PINNs/Ryder_issm2024-Dec-19_3_pinn25-Feb-05_5G", "is_save": true, "is_plot": true, "B": [[-6.214295427541923, -7.309372310716558, -0.08878688510412013, -0.44529972494703024, 5.834448593073205, -2.4600828413450078, -9.716198381528011, 0.29514111484838684, 2.6951596056226386, -1.6515720969417267, -4.349519129036668, 0.11339292494288118, 8.001036974538554, -7.750510456517139, 2.446546450562179, 0.6620251774200889, -0.005457487668314658, 8.035798986069853, 3.738444086651454, -4.740932583014129, 12.75292169090152, 1.763665728709689, 0.8140152010491377, 2.613456201163127, -10.077638256800105, -5.3734209093207355, -0.354115904362163, 3.232162450622677, 1.7056073788029222, 1.1427925186271373], [4.8205421493697065, 2.7115564083567762, -5.320179060804985, -5.505814764672708, 1.031617129161437, 2.1225107976104187, -3.3787282774410343, -2.4464714689397766, 9.182970462851234, -9.049696797888195, -4.464161866974847, -8.978811050972464, -3.6921011550359606, 1.302579831173616, 3.372375650996473, 4.157262238615985, 2.5871902645728744, 4.086328132895986, -1.0619652871120489, 7.10374950180687, 0.08891544803688059, 0.18774078584728154, 2.7167810953988796, -3.2717955649065495, 1.0470321525027289, 1.754989734819003, 4.892444243243948, 6.822923083116318, -4.2205684124823994, -4.320931876442838]]}