{"shapefile": "./Ryder_32_09.exp", "epochs": 150000, "learning_rate": 0.001, "loss_function": "MSE", "data": {"ISSM": {"data_path": "./Models/Ryder_issm2024-Dec-19_3.mat", "data_size": {"u": 8000, "v": 8000, "s": 8000, "H": null, "C": 8000}}}, "num_collocation_points": 16000, "equations": {"MOLHO": {"scalar_variables": {"B": 200000000.0}, "data_weights": [99451929600.0, 99451929600.0, 99451929600.0, 99451929600.0, 1e-06, 1e-06, 1e-08], "pde_weights": [1e-16, 1e-16, 1e-16, 1e-16], "output_lb": [-4.54292703799824e-06, -4.54292703799824e-06, -4.54292703799824e-06, -4.54292703799824e-06, -1000.0, 10.0, 0.01], "output_ub": [4.54292703799824e-06, 4.54292703799824e-06, 4.54292703799824e-06, 4.54292703799824e-06, 4000.0, 4000.0, 10000.0], "variable_lb": [-4.54292703799824e-06, -4.54292703799824e-06, -4.54292703799824e-06, -4.54292703799824e-06, -1000.0, 10.0, 0.01], "variable_ub": [4.54292703799824e-06, 4.54292703799824e-06, 4.54292703799824e-06, 4.54292703799824e-06, 4000.0, 4000.0, 10000.0]}}, "activation": "tanh", "initializer": "Glorot uniform", "num_neurons": 20, "num_layers": 6, "input": ["y", "x"], "fft": true, "sigma": 5, "num_fourier_feature": 30, "save_path": "./PINNs/Ryder_issm2024-Dec-19_3_pinn25-Feb-07_7G", "is_save": true, "is_plot": true, "B": [[-0.6175333340889629, 1.9742080056811793, -1.05530949023587, 1.1965185833216283, 5.6978650121688155, -4.589812645504287, 0.8129291023191049, 1.4644488385260115, 0.24408747806291553, -3.531834901614851, 0.09608874698735564, 1.3563224863174248, 3.871299750715149, 6.774506265660546, -3.827699924812995, 6.468467556606341, -2.1882321188229374, 2.2877935645984318, 0.5564850296791222, 1.3415013298066027, -0.09533008810359694, 8.676559165835098, -5.1156987574797235, -2.615068805762681, 4.667009176984709, -4.382308491652011, 4.877581214370576, -5.238462394293172, 4.092918871263342, 6.676655540906285], [4.707238729184632, 4.086011366947711, 3.363931919060006, -0.7102124034387889, 0.5082906816371268, 3.370474531031224, -8.798861228704101, 2.218581080662447, -1.3583752824720983, -11.68809375251653, -2.2140073290728104, -1.7182467960865835, -6.257453560136705, 0.08547619137022364, 0.05769087285474564, 8.364073543393404, -4.077952792909482, -5.685021135092767, -2.768189038434432, -0.5693036220791526, -6.464622403483535, 1.5982690083185824, -1.9217051312707634, 2.3747249802487644, 3.078386441900311, 7.5095483919127695, -4.516135108541912, 8.001364468262524, 10.311662061724679, -0.39472596255081327]]}