{"data": {"ISSM": {"data_path": "./Models/Ryder_test_I05-Dec-2024_2.mat", "data_size": {"u": 5000, "v": 5000, "s": 5000, "H": null, "C": 5000, "vel": 5000}}, "ft": {"data_path": "./Ryder_xyz.mat", "data_size": {"H": 8000}, "name_map": {"H": "thickness"}, "X_map": {"x": "x", "y": "y"}, "source": "mat"}}, "epochs": 100000, "learning_rate": 0.0005, "loss_function": "MSE", "save_path": "./PINNs/Ryder_test_I05-Dec-2024_2_P16-Dec-24_2", "is_save": true, "is_plot": true, "activation": "tanh", "initializer": "Glorot uniform", "num_neurons": 20, "num_layers": 6, "input": ["y", "x"], "shapefile": "./Ryder_32_09.exp", "num_collocation_points": 10000, "equations": {"SSA": {"scalar_variables": {"B": 200000000.0, "n": 4}, "data_weights": [99451929600.0, 99451929600.0, 5e-06, 1e-06, 1e-08]}}, "fft": true, "sigma": 5, "num_fourier_feature": 30, "B": [[6.605542387359734, 1.1229533305596202, 7.43116665398821, -3.535552712628588, 1.424607792835342, -0.7693938490405215, 2.957133272478977, -4.1181006634714805, -2.2233755481664836, 0.05866213053183389, -3.473747079082978, -5.349743346935563, -6.352401425563218, -7.20009333461217, 1.3998747204869217, -8.00116266227681, 1.742740064045345, 1.5133922547538645, 1.6788720323865538, -2.682774687144009, 7.137377859295043, -6.973410232261622, 1.9445679273526781, 5.581465670980226, -6.4342812291664995, -7.476547542706175, 3.258606323999799, 3.0723304391430464, -7.475177505319651, -6.243901698459133], [0.02245839352734292, -5.377949418710337, -1.272100755550987, 4.227235828661067, 2.8081447254947314, 9.32138147917761, 8.119510381707535, 4.956525281359384, 4.3756597998173845, -0.09340490867161316, 2.2453486938600458, 4.8087744911869414, -0.13464990617988368, -4.326513261954675, 3.2691539104299885, 1.3392771859185304, -0.4906908161986363, -4.911673741511931, 9.900504221154904, 5.71092172239849, 6.5576758548462, 2.0817425896143043, 0.061632303729663725, 2.3769509854008426, -11.060872728828459, 2.444416968264758, 4.087964349320703, 3.727723068312578, -0.9643183527863919, -0.01637478994326557]]}