{"shapefile": "./UpperJakobshavn_17_11.exp", "epochs": 150000, "learning_rate": 0.001, "loss_function": "MSE", "data": {"ISSM": {"data_path": "./Models/UpperJakobshavn_issm2025-Jan-17_1.mat", "data_size": {"u": 8000, "v": 8000, "s": 8000, "H": null, "C": 8000}}, "ft": {"data_path": "./UpperJakobshavn_xyz_500.mat", "data_size": {"H": 8000}, "X_map": {"x": "x", "y": "y"}, "name_map": {"H": "thickness"}, "source": "mat"}, "velbase": {"data_path": "./UpJak_vel_base_ms.mat", "data_size": {"u_base": 8000, "v_base": 8000}, "name_map": {"u_base": "md_u_base", "v_base": "md_v_base"}, "X_map": {"x": "x", "y": "y"}, "source": "mat"}}, "num_collocation_points": 16000, "equations": {"MOLHO": {"scalar_variables": {"B": 150000000.0}, "data_weights": [99451929600.0, 99451929600.0, 99451929600.0, 99451929600.0, 1e-06, 1e-07, 5e-09], "pde_weights": [2e-14, 2e-14, 2e-14, 2e-14], "output_lb": [-1.927743544750083e-06, -1.927743544750083e-06, -1.927743544750083e-06, -1.927743544750083e-06, -1000.0, 10.0, 0.01], "output_ub": [1.927743544750083e-06, 1.927743544750083e-06, 1.927743544750083e-06, 1.927743544750083e-06, 4000.0, 4000.0, 10000.0], "variable_lb": [-1.927743544750083e-06, -1.927743544750083e-06, -1.927743544750083e-06, -1.927743544750083e-06, -1000.0, 10.0, 0.01], "variable_ub": [1.927743544750083e-06, 1.927743544750083e-06, 1.927743544750083e-06, 1.927743544750083e-06, 4000.0, 4000.0, 10000.0]}}, "activation": "tanh", "initializer": "Glorot uniform", "num_neurons": 20, "num_layers": 6, "input": ["y", "x"], "fft": true, "sigma": 5, "num_fourier_feature": 30, "save_path": "./PINNs/UpperJakobshavn_issm2025-Jan-17_1_pinn25-Feb-17_3G", "is_save": true, "is_plot": true, "B": [[5.512829054377738, -0.5177094119518565, -0.8360135019177244, -1.2286479024924832, 1.3901472703141613, 7.600160122558156, -8.691391091757506, 4.885454785939528, -1.05296859810923, -4.310764884917676, -2.649141807957582, 7.2622484987967475, -4.098328395095768, -4.602071027808096, 0.4085399640226562, -0.053315128502763105, 1.1748658673353187, 5.099086222396567, -0.33151234397237267, 4.2741604346040845, 2.139258620788722, -0.884026621275722, -2.1930183751691064, -5.319018343832997, -0.5142693288143857, 10.617800652774502, 3.143468380619614, 2.5152051142917387, -0.05012243967553239, -0.2704814410323929], [-2.4115841494767962, 4.4874898542443855, -1.920781746726413, -0.25151132191534464, 3.29303081539439, -11.299690975621466, 0.6461344318665456, 10.598331601136785, -3.26681101141257, -4.256453208504186, -1.5939284674152623, -2.3958723015947387, -3.336511011888126, 3.8054444638169844, -3.617881277189716, 3.433968186311, 7.229906751426834, -1.4442237885520366, 0.39518382617540804, 10.349670456658128, -7.173508832615754, 6.6567206150522775, 0.004122850911519124, 4.107911612687182, 13.20844598713249, 7.074766888156252, -1.395672498432001, 3.669624755468109, 4.418076122949266, -4.6793694130072705]]}