{"data": {"ISSM": {"data_path": "./Models/Ryder_test_I05-Dec-2024_2.mat", "data_size": {"u": 5000, "v": 5000, "s": 5000, "H": null, "C": 5000, "vel": 5000}}, "ft": {"data_path": "./Ryder_xyz.mat", "data_size": {"H": 20000}, "name_map": {"H": "thickness"}, "X_map": {"x": "x", "y": "y"}, "source": "mat"}}, "epochs": 100000, "learning_rate": 0.0005, "loss_function": "MSE", "save_path": "./PINNs/Ryder_test_I05-Dec-2024_2_P17-Dec-24_1", "is_save": true, "is_plot": true, "activation": "tanh", "initializer": "Glorot uniform", "num_neurons": 20, "num_layers": 6, "input": ["y", "x"], "shapefile": "./Ryder_32_09.exp", "num_collocation_points": 10000, "equations": {"SSA": {"scalar_variables": {"B": 200000000.0, "n": 4}, "data_weights": [99451929600.0, 99451929600.0, 5e-06, 1e-06, 1e-08]}}, "fft": true, "sigma": 5, "num_fourier_feature": 30, "B": [[0.8313501262755174, 7.846123844082854, 6.936040655877017, 6.484942445550122, -3.920872240646026, -4.07299149300081, -4.5997052080463465, -4.9908239824584975, -1.8469306866545554, 2.6961510625639984, 0.09326176926155895, 8.645556582803058, 3.696040271417202, -2.8754830678289336, -0.2834765495860108, -0.1589585393324848, -4.880869733886668, 0.1689619209761881, 3.8316481063217522, 0.35160806679505835, -9.258324766407886, 2.161081874425628, -5.401456155563491, -1.9034002297561248, -5.4972369939549095, 1.3654725826656764, 1.271708308987654, -1.3919025055798464, 7.981222728361158, -10.357632526808672], [-1.5629581574189422, 3.316253362415199, -3.7787574417516376, 6.202383664124385, -3.3508948421766975, -11.923527020375104, -10.922630351933835, -0.822600481001206, -0.48319212611498463, -7.005239818956129, -0.03718751087749431, 1.9809037353899406, -1.4766010272377326, 0.5595170272881984, 1.126484644820645, 1.392456941710591, 5.3031974602054035, -2.5408156203790453, 2.827622080273178, -1.1489901974215058, 8.493190126355405, 1.7366525798240824, 8.001973356471561, 0.9343342211986256, 2.6041522111768485, -8.511620144614005, -0.771272694938806, 6.145410434732326, 0.23264814940884676, 1.7447611863092272]]}