{"shapefile": "./UpperJakobshavn_17_11.exp", "epochs": 50000, "learning_rate": 0.001, "loss_function": "MSE", "data": {"ISSM": {"data_path": "./Models/UpperJakobshavn_issm2025-Jan-17_1.mat", "data_size": {"u": 5000, "v": 5000, "s": 5000, "H": null, "C": 5000}}, "ft": {"data_path": "UpperJakobshavn_xyz_ds.mat", "data_size": {"H": 8000}, "X_map": {"x": "x", "y": "y"}, "name_map": {"H": "thickness"}, "source": "mat"}}, "num_collocation_points": 10000, "equations": {"MOLHO": {"scalar_variables": {"B": 200000000.0}, "data_weights": [99451929600.0, 99451929600.0, 9945192960000.0, 9945192960000.0, 5e-06, 1e-06, 1e-08], "output_lb": [-0.00031709791983764585, -0.00031709791983764585, -3.1709791983764586e-06, -3.1709791983764586e-06, -1000.0, 10.0, 0.01], "output_ub": [0.00031709791983764585, 0.00031709791983764585, 3.1709791983764586e-06, 3.1709791983764586e-06, 4000.0, 4000.0, 10000.0], "variable_lb": [-0.00031709791983764585, -0.00031709791983764585, -3.1709791983764586e-06, -3.1709791983764586e-06, -1000.0, 10.0, 0.01], "variable_ub": [0.00031709791983764585, 0.00031709791983764585, 3.1709791983764586e-06, 3.1709791983764586e-06, 4000.0, 4000.0, 10000.0]}}, "activation": "tanh", "initializer": "Glorot uniform", "num_neurons": 20, "num_layers": 6, "input": ["y", "x"], "fft": true, "sigma": 5, "num_fourier_feature": 30, "save_path": "./PINNs/UpperJakobshavn_issm2025-Jan-17_1_pinn25-Jan-21_2G", "is_save": true, "is_plot": true, "B": [[0.7795103086064386, -3.3126320367536484, 7.266832558770526, -0.4379745484962391, 2.239843694752747, -3.39504370369771, -8.63382162901941, 4.8767803997722154, 0.052240830408203404, 4.734726587746414, 2.033962663569743, -3.687459781614779, -0.7624488122084867, -1.7921958945602023, 8.190852151677522, 3.766883005794361, 0.49680190061800533, 2.462055002318636, 1.781966269144265, -4.071284601340771, -1.2603056521511355, -3.774817663543477, -0.09268284476704892, -1.1804404557071064, -4.0442232217714285, 5.087010238322911, 5.476622136959208, 0.15416573544224244, 1.9150675536314266, -5.1978589677261535], [-2.778892873627698, 4.955421175157132, 5.740124795810372, -3.8679077794911434, -10.887378936047053, 8.718187497465369, -1.9701826711437518, 5.214203376858003, -8.297291473283865, 11.351160247052775, 1.032012009604187, 1.1911895053417567, -4.978294794113883, -0.310275908396233, -5.836587532982687, 3.033682363269294, 7.935769774269393, -0.3538342468785587, 2.426364510880817, 2.3817245100947453, 0.9983231077202119, -0.6305062423449013, 2.321702420071831, 2.3801697420002705, 6.408872341441447, -3.5812555950902327, 11.437807816324419, -3.3854574313657455, -4.656214089054165, 15.120852516258928]]}