{"data": {"ISSM": {"data_path": "./Models/Ryder_test_I22-Nov-2024_17-41-27.mat", "data_size": {"u": 4000, "v": 4000, "s": 4000, "H": null, "C": 4000, "vel": 4000}}}, "epochs": 100000, "learning_rate": 0.0005, "loss_function": "MSE", "save_path": "./PINNs/Ryder_test_I22-Nov-2024_17-41-27_P04-Dec-24_1", "is_save": true, "is_plot": true, "activation": "tanh", "initializer": "Glorot uniform", "num_neurons": 20, "num_layers": 6, "input": ["y", "x"], "shapefile": "./Ryder_32_09.exp", "num_collocation_points": 8000, "equations": {"SSA": {"scalar_variables": {"B": 200000000.0}, "data_weights": [99451929600.0, 99451929600.0, 5e-05, 1e-06, 5e-08]}}, "fft": true, "sigma": 5, "num_fourier_feature": 30, "B": [[4.87314975271056, -7.127628368549969, 9.042491374720614, -4.415378699748528, -1.7773745009425725, -7.119545208977259, -11.49617603071305, 8.012036993908685, -9.415169681698837, 6.926106793932574, 4.223692750374487, 0.5470473618248325, -0.4209189026816223, -0.2258757419438897, 1.3081175949969095, -1.1239941636334942, 2.7759632286097062, -0.44504315164076236, -1.772600476508104, -5.835357684005454, -2.975753648267058, 5.60878334864533, -1.5725901814657515, -2.864919463487941, 6.237911051259304, 1.5146416938187572, 2.26311177417208, 3.345192822016709, -7.446309179788047, 6.33117275631006], [5.5804850975091576, 0.06258854669607511, -9.415995428250516, -1.8904011494595083, 0.34583394915083854, 1.1727697900632759, -7.6470535462944325, -4.425654746751685, 0.9906758049055114, 1.3765628911219172, 4.681248432910207, -1.8978536757266076, 3.2258608596532055, 5.8493903364803, 5.96939040881018, 6.797166222147133, -4.3892127194762836, -9.589453398351623, 0.4894343181203617, -1.582244860268001, 9.728631125132592, 5.778418377303177, -3.3682825831422827, 2.1475263161307208, 5.532291641267435, -1.6007901732311804, 8.599014093876827, 0.9658596359955675, 2.6108964249649813, -10.599417335022498]]}