{"shapefile": "./Ryder_32_09.exp", "epochs": 150000, "learning_rate": 0.001, "loss_function": "MSE", "data": {"ISSM": {"data_path": "./Models/Ryder_issm2024-Dec-19_3.mat", "data_size": {"u": 8000, "v": 8000, "s": 8000, "H": null, "C": 8000}}, "ft": {"data_path": "Ryder_xyz_ds.mat", "data_size": {"H": 8000}, "X_map": {"x": "x", "y": "y"}, "name_map": {"H": "thickness"}, "source": "mat"}}, "num_collocation_points": 16000, "equations": {"MOLHO": {"scalar_variables": {"B": 200000000.0}, "data_weights": [10000000000.0, 10000000000.0, 10000000000.0, 10000000000.0, 1e-06, 1e-06, 1e-08], "output_lb": [-6.341958396752917e-06, -6.341958396752917e-06, -6.341958396752917e-06, -6.341958396752917e-06, -1000.0, 10.0, 0.01], "output_ub": [6.341958396752917e-06, 6.341958396752917e-06, 6.341958396752917e-06, 6.341958396752917e-06, 4000.0, 4000.0, 10000.0], "variable_lb": [-6.341958396752917e-06, -6.341958396752917e-06, -6.341958396752917e-06, -6.341958396752917e-06, -1000.0, 10.0, 0.01], "variable_ub": [6.341958396752917e-06, 6.341958396752917e-06, 6.341958396752917e-06, 6.341958396752917e-06, 4000.0, 4000.0, 10000.0]}}, "activation": "tanh", "initializer": "Glorot uniform", "num_neurons": 20, "num_layers": 6, "input": ["y", "x"], "fft": true, "sigma": 5, "num_fourier_feature": 30, "save_path": "./PINNs/Ryder_issm2024-Dec-19_3_pinn25-Jan-30_3G", "is_save": true, "is_plot": true, "B": [[0.7685104881608257, 2.4068896947569214, 6.019714377206345, -6.8850733183127675, 3.5272516920800756, 2.5782783013471207, 6.01691898268752, -3.1733113005105675, 1.8063695232410004, 5.795778807302425, 12.223479283589075, 0.929167875497492, 1.1356970121091101, -5.754262322393929, -1.02452006040156, 7.058971439313044, 1.530311101277905, 6.397247229458563, -6.274612155775027, -9.807753796619473, 1.9395523246342041, -4.335710093212008, -6.48268675691901, 4.77337930926731, -1.4132501339435075, 6.552736720186693, 4.797868115846025, 0.4650421750784278, -5.418462877773006, -11.595610718320806], [3.723067239764275, -4.105534745676379, -1.5256022352523677, -0.6624083530915481, 3.5791357556142573, -3.9316078244857633, -6.4196480147393356, 8.376413249274409, 3.8092957161145193, 8.976251505056613, -6.487686566465748, 2.9993619723446816, 6.17619436108562, -7.05867396809032, -4.692086956050772, -3.9006527407751252, -2.3536797289206675, 1.1936375088310671, -0.9677614070432545, -2.6145542196520424, -0.7808157739654524, 5.1033725057972035, -14.36120293089001, -3.2778670421011284, -4.715967560053515, 0.8037838162512762, 1.0918622149926285, -7.451587204147935, -1.0008965087132489, -2.1379542341245297]]}