{"data": {"ISSM": {"data_path": "./Models/Ryder_issm2024-Dec-19_3.mat", "data_size": {"u": 8000, "v": 8000, "s": 8000, "H": null, "C": null}}, "ft": {"data_path": "./Ryder_xyz_ds.mat", "data_size": {"H": 10000}, "name_map": {"H": "thickness"}, "X_map": {"x": "x", "y": "y"}, "source": "mat"}}, "epochs": 400000, "learning_rate": 0.001, "loss_function": "MSE", "save_path": "./PINNs/Ryder_issm2024-Dec-19_3_pinn25-Jan-07_1G", "is_save": true, "is_plot": true, "activation": "tanh", "initializer": "Glorot uniform", "num_neurons": 20, "num_layers": 6, "input": ["y", "x"], "shapefile": "./Ryder_32_09.exp", "num_collocation_points": 16000, "equations": {"MOLHO": {"scalar_variables": {"B": 200000000.0}, "data_weights": [99451929600.0, 99451929600.0, 99451929600.0, 99451929600.0, 5e-06, 2e-06, 1e-08]}}, "fft": true, "sigma": 5, "num_fourier_feature": 30, "B": [[-6.816549068740889, 11.037811350207853, 0.8231332331870627, 3.9104606386866934, 0.12407026539305198, 1.2539501008124099, -0.621539119004658, 1.9505334999530306, -2.4880473675779924, -7.724041156837198, 0.7663154198764184, -5.754912862118413, -6.5999049557718426, -3.2736617933596266, -1.02830419367697, -14.055780289591539, 5.143661709671869, -9.811157739125912, -3.302092957280645, -1.4326372304184463, 0.8104542359566697, -3.6809098720933555, 12.166857391700113, 4.646606221050419, 2.960669136878349, 0.4196022817700228, 3.5047048252042847, 3.7678037805172124, 1.5773752767742144, 8.525732926491175], [-5.5571407811680515, 4.858029762219708, 5.790084051583511, -8.581771410053303, -0.2321031851405605, -6.808132660933115, -0.6859740776538787, 3.9197557621306083, 8.19255109765087, 7.667498137525149, -5.972853173203251, 7.127254118427312, -2.2267687624856545, 3.1255771604175573, -10.357241622909967, 0.12828242598281894, 3.5981048980367225, -6.863222928502801, 11.06431417255482, -6.226271323310834, 3.2246092024042032, 5.0073248134133586, 3.5728597231329347, 4.491787108748916, -0.112819048480991, -0.08789745275109803, 11.6335789561908, 3.2329387174683015, -4.193120962185937, 0.04703965551221273]]}