{"shapefile": "./Ryder_32_09.exp", "epochs": 20000, "learning_rate": 0.001, "loss_function": "MSE", "data": {"ISSM": {"data_path": "./Models/Ryder_issm2024-Dec-19_3.mat", "data_size": {"u": 8000, "v": 8000, "s": 8000, "H": null, "C": null}}, "ft": {"data_path": "Ryder_xyz_ds.mat", "data_size": {"H": 8000}, "X_map": {"x": "x", "y": "y"}, "name_map": {"H": "thickness"}, "source": "mat"}}, "num_collocation_points": 16000, "equations": {"MOLHO": {"scalar_variables": {"B": 200000000.0}, "data_weights": [99451929600.0, 99451929600.0, 99451929600.0, 99451929600.0, 1e-06, 1e-06, 1e-08], "output_lb": [-3.1709791983764586e-06, -3.1709791983764586e-06, -3.1709791983764586e-06, -3.1709791983764586e-06, -1000.0, 10.0, 0.01], "output_ub": [3.1709791983764586e-06, 3.1709791983764586e-06, 3.1709791983764586e-06, 3.1709791983764586e-06, 4000.0, 4000.0, 10000.0], "variable_lb": [-3.1709791983764586e-06, -3.1709791983764586e-06, -3.1709791983764586e-06, -3.1709791983764586e-06, -1000.0, 10.0, 0.01], "variable_ub": [3.1709791983764586e-06, 3.1709791983764586e-06, 3.1709791983764586e-06, 3.1709791983764586e-06, 4000.0, 4000.0, 10000.0]}}, "activation": "tanh", "initializer": "Glorot uniform", "num_neurons": 20, "num_layers": 6, "input": ["y", "x"], "fft": true, "sigma": 5, "num_fourier_feature": 30, "save_path": "./PINNs/Ryder_issm2024-Dec-19_3_pinn25-Jan-29_3G", "is_save": true, "is_plot": true, "B": [[-3.8340552401091226, -5.494405878967635, -6.1882396779271565, -2.170268410984151, 0.24020257928837035, -5.493203120981452, -2.342918766754781, 1.9860956252549764, 1.395701469878531, 2.4292240127868463, 6.2020278771336965, 2.4111868233122236, -0.13131397264780864, 5.439244623279479, 2.959173810240836, 1.8219473183519328, 0.07419436031804719, 2.053683565829996, 3.3683359294371567, 9.865772959500973, -2.637122229292685, 9.094080125575001, -4.11408674550969, 2.8368614008456046, 4.30489910899676, 9.368843752042098, -1.3269001431152487, 2.5987129323066056, 6.082605702819026, -2.7427417958498475], [-2.5353800162209206, -6.691368127157368, 3.8094627223408812, -6.382536881245775, 8.967987004446364, -6.776309039793685, 1.8401882835665426, 8.781126837882628, -0.7758675503152832, -0.5280474325779616, 2.3120531415761807, -6.858361172381794, -11.038125186422365, 2.813924676156016, 7.183507313106854, -10.803873476684219, -1.9606928968218793, -5.615968524535737, -0.9608435864026197, -0.14072329869485375, -5.341406623999956, -2.6755885465438647, 5.683471764940999, -6.474138254643822, 3.49534297023127, -11.199687944354316, -4.1498847072110605, -7.416590653247594, 3.558507022208661, -6.771093204669386]]}