{"data": {"ISSM": {"data_path": "./Models/Ryder_test_I05-Dec-2024_2.mat", "data_size": {"u": 5000, "v": 5000, "s": 5000, "H": null, "C": 5000, "vel": 5000}}}, "epochs": 1000000, "learning_rate": 0.0005, "loss_function": "MSE", "save_path": "./PINNs/Ryder_test_I05-Dec-2024_2_P05-Dec-24_5", "is_save": true, "is_plot": true, "activation": "tanh", "initializer": "Glorot uniform", "num_neurons": 20, "num_layers": 6, "input": ["y", "x"], "shapefile": "./Ryder_32_09.exp", "num_collocation_points": 10000, "equations": {"SSA": {"scalar_variables": {"B": 200000000.0}, "data_weights": [99451929600.0, 99451929600.0, 1e-05, 1e-06, 1e-08]}}, "fft": true, "sigma": 5, "num_fourier_feature": 30, "B": [[0.7064819687245698, -0.04007235217511529, 4.5927299620604884, -4.96751494575418, 1.4546632097397145, -0.37257205238536995, -9.097029598795924, 3.1257552556587913, 8.11457571869923, -2.9176438784662766, 12.259786008094354, 0.47125170751265977, -0.8480786633405506, 0.43173168828946273, 2.8110214324065796, 1.3665919289876902, 0.26536928099199847, -0.20857169712476223, -0.4699617657498925, -13.568545973464733, -4.175615880182081, 4.769739948066151, -3.0617711037276276, -3.9212698058616495, -0.30864175513854025, -3.2513809708080466, 2.998409559684692, 3.394295125137716, -2.184380595359769, 0.9472691865139118], [1.430484839117316, 2.815476632128504, -4.837868695342069, 0.5280565863619706, 3.164009015024166, -8.190663403034923, -3.3961517996978543, -2.64807554989468, -1.6098262943317811, -7.629318547337772, -6.870458919885478, -8.09535532604264, 3.6278210106198205, -1.8642536312832778, 1.2314183258444933, -0.649112802117868, 0.6380516457575981, -2.5305128376001464, 2.0449443467663073, -0.9224881759436017, -3.084278682472485, 1.0561905075472036, 1.1442686106302704, 3.001129876778084, -2.3149626547414384, 15.048566416914975, -7.890171568517761, -9.153078135671702, -0.1105603070659887, 1.1101197718998752]]}