{"data": {"ISSM": {"data_path": "./Models/Ryder_test_I05-Dec-2024_2.mat", "data_size": {"u": 5000, "v": 5000, "s": 5000, "H": null, "C": 5000, "vel": 5000}}}, "epochs": 50000, "learning_rate": 0.0005, "loss_function": "MSE", "save_path": "./PINNs/Ryder_test_I05-Dec-2024_2_P05-Dec-24_2", "is_save": true, "is_plot": true, "activation": "tanh", "initializer": "Glorot uniform", "num_neurons": 20, "num_layers": 6, "input": ["y", "x"], "shapefile": "./Ryder_32_09.exp", "num_collocation_points": 10000, "equations": {"SSA": {"scalar_variables": {"B": 200000000.0}, "data_weights": [99451929600.0, 99451929600.0, 1e-06, 1e-06, 1e-08]}}, "fft": true, "sigma": 5, "num_fourier_feature": 30, "B": [[-5.62277806929948, -0.9320589297341643, 1.11147759209809, -4.0578291448603405, -0.174573867667876, -4.659413953666718, 2.6212752605159935, 4.636856720808983, -2.861177267812727, -1.2164801669549026, 4.887246547257838, -2.713205484074204, 11.484665458807054, 0.5210240875793416, 3.5192387392949183, -3.4478557529379317, -10.288125392753532, -7.618355896409128, -1.3238303053198544, 4.02602749017432, 3.95111212399345, 1.9959736518331148, 5.4615923244512965, 5.0619754675961905, 1.508779880023714, -5.69235123920393, 0.5724569450800905, -10.34161992856242, 4.819846161356192, 3.9592924186024177], [-0.7093800227735526, -2.683655054054122, -10.567668051375582, -3.4446690415034267, -2.7463071720216585, -1.2030288079780045, -6.6685395299195, -2.2870815429612317, -10.989384560960819, -6.9219693603046135, -4.467109474627802, 11.001256584265246, -1.703131255312407, 3.6805366382398086, -13.018581116731294, -1.942659163043127, 2.0543832839094804, 7.468211500089065, -0.05120072250799551, 1.1024034268900171, 3.6004175415499247, 1.1666958222965231, 1.2436902538873642, -2.6478733787164908, -3.9482475852950576, -7.264598034828226, 1.5570720072436157, -0.5047847773510503, 0.690599095978377, 5.25886436344155]]}