{"data": {"ISSM": {"data_path": "./Models/Ryder_test_I19-Dec-2024_3.mat", "data_size": {"u": 10000, "v": 10000, "s": 10000, "H": null, "C": 10000, "vel": 10000}}, "ft": {"data_path": "./Ryder_xyz.mat", "data_size": {"H": 80000}, "name_map": {"H": "thickness"}, "X_map": {"x": "x", "y": "y"}, "source": "mat"}}, "epochs": 50000, "learning_rate": 0.0005, "loss_function": "MSE", "save_path": "./PINNs/Ryder_test_I19-Dec-2024_3_P20-Dec-24_1", "is_save": true, "is_plot": true, "activation": "tanh", "initializer": "Glorot uniform", "num_neurons": 20, "num_layers": 6, "input": ["y", "x"], "shapefile": "./Ryder_32_09.exp", "num_collocation_points": 20000, "equations": {"SSA": {"scalar_variables": {"B": 200000000.0, "n": 3}, "data_weights": [99451929600.0, 99451929600.0, 5e-06, 5e-06, 5e-08]}}, "fft": true, "sigma": 5, "num_fourier_feature": 30, "B": [[7.6192363579068, -0.18642949966030165, 0.34845993839598055, -8.53248025278585, 7.092900982317437, -1.3271127240222031, -4.280820234991674, 0.5575125646231944, 0.9590905844043829, -3.206819896221116, -2.853725180324729, 0.7030646523714899, 1.2637222119344418, 1.153452731988983, -0.5239013530504472, 4.309379255252969, 1.5715204856103009, -1.3044652194924031, -3.565517882808524, -5.672269901048899, -6.462138168545774, 5.641344011774567, 11.179900110554389, -9.954254073695077, 0.3786496509139497, -3.0721185009913525, -5.182661038351615, -1.2256079936619877, -4.35849598953905, -0.047835949980833854], [-4.199025019202089, 0.21523060391412788, 4.703992213691375, 3.1464554059337146, 3.7077497989022556, -1.0762060125949813, 7.739101305257444, -7.141455681198435, -6.91721011111528, -0.2083228019452167, 1.9180463919616022, -5.487802650246949, 2.218276847180755, 0.7572858893394567, -1.1081738129802234, 8.45115370327502, 6.631248130170238, 0.7347265065347108, 8.289111392125728, -0.47258130919627894, -3.2422304644886695, 0.17710978473570546, 5.221665843624731, 1.7680777477745724, 0.5667175663205188, -2.2096270203961588, 6.394854381052505, -0.6977755025429538, -0.19702432072072157, 5.627839078506653]]}