{"shapefile": "./UpperJakobshavn_17_11.exp", "epochs": 50000, "learning_rate": 0.001, "loss_function": "MSE", "data": {"ISSM": {"data_path": "./Models/UpperJakobshavn_issm2025-Jan-17_1.mat", "data_size": {"u": 5000, "v": 5000, "s": 5000, "H": null, "C": 5000}}, "ft": {"data_path": "UpperJakobshavn_xyz_ds.mat", "data_size": {"H": 8000}, "X_map": {"x": "x", "y": "y"}, "name_map": {"H": "thickness"}, "source": "mat"}, "velbase": {"data_path": "./UpJak_vel_base_ms.mat", "data_size": {"u_base": 2500, "v_base": 2500}, "name_map": {"u_base": "md_u_base", "v_base": "md_v_base"}, "X_map": {"x": "x", "y": "y"}, "source": "mat"}}, "num_collocation_points": 10000, "equations": {"MOLHO": {"scalar_variables": {"B": 200000000.0}, "data_weights": [100000000000.0, 100000000000.0, 1e-13, 1e-13, 5e-06, 1e-05, 1e-08], "output_lb": [-0.00031709791983764585, -0.00031709791983764585, -3.1709791983764586e-06, -3.1709791983764586e-06, -1000.0, 10.0, 0.01], "output_ub": [0.00031709791983764585, 0.00031709791983764585, 3.1709791983764586e-06, 3.1709791983764586e-06, 4000.0, 4000.0, 10000.0], "variable_lb": [-0.00031709791983764585, -0.00031709791983764585, -3.1709791983764586e-06, -3.1709791983764586e-06, -1000.0, 10.0, 0.01], "variable_ub": [0.00031709791983764585, 0.00031709791983764585, 3.1709791983764586e-06, 3.1709791983764586e-06, 4000.0, 4000.0, 10000.0]}}, "activation": "tanh", "initializer": "Glorot uniform", "num_neurons": 20, "num_layers": 6, "input": ["y", "x"], "fft": true, "sigma": 5, "num_fourier_feature": 30, "save_path": "./PINNs/UpperJakobshavn_issm2025-Jan-17_1_pinn25-Jan-23_1G", "is_save": true, "is_plot": true, "B": [[8.90360755360527, -0.12257849490071616, -5.860053782548569, 4.673044699346364, -3.5276416835972277, 9.227485798814701, -1.2980036908491956, -0.053526378316556884, -5.66592682258329, 2.1710081258780556, -6.308632779219483, 0.623889225907579, -0.8512640141610008, -6.5044307475468095, 5.670006796926237, 2.4108021852463715, 1.2096425314271526, -5.2283542002535, 3.516442703248344, -11.717897956251004, 5.7669637026506155, -1.7728901225641926, 0.4060548598375238, -1.487990640857255, -2.8774585735589433, 6.344833079100733, 0.6950174701868255, -0.2902295885410411, -5.326252074695857, -3.541371343714667], [9.842300780040896, -6.711299591473551, 0.1627112029677964, 2.119151219051724, -7.881277269606766, -1.6395398761168092, -2.519031004565746, 4.443566017486034, -2.6617727948979346, -7.699629216574855, 2.0107051168314847, 1.1127129599630543, 1.2060890020205237, 4.931042260806738, -1.2668705319619122, -6.743313576044681, -0.5588427050812851, -0.7511829742696652, -5.511526063817773, 6.388699612272987, -4.242987470623233, 0.18735592875572918, -1.4514831876632706, 2.994614855547551, 6.591402458345509, -10.321625976212657, 0.5532463360749125, -4.507377774746501, 9.184904308268212, 2.0372647291888137]]}