{"data": {"ISSM": {"data_path": "./Models/Ryder_issm2024-Dec-19_3.mat", "data_size": {"u": 5000, "v": 5000, "s": 5000, "H": null, "C": 5000, "B": 5000}}, "ft": {"data_path": "./Ryder_xyz_ds.mat", "data_size": {"H": 10000}, "name_map": {"H": "thickness"}, "X_map": {"x": "x", "y": "y"}, "source": "mat"}}, "epochs": 400000, "learning_rate": 0.001, "loss_function": "MSE", "save_path": "./PINNs/Ryder_issm2024-Dec-19_3_pinn25-Jan-06_1G", "is_save": true, "is_plot": true, "activation": "tanh", "initializer": "Glorot uniform", "num_neurons": 20, "num_layers": 6, "input": ["y", "x"], "shapefile": "./Ryder_32_09.exp", "num_collocation_points": 10000, "equations": {"MOLHO": {"scalar_variables": {"B": 200000000.0}, "data_weights": [99451929600.0, 99451929600.0, 99451929600.0, 99451929600.0, 5e-06, 1e-06, 1e-08]}}, "fft": true, "sigma": 5, "num_fourier_feature": 30, "B": [[0.16087689277138664, 8.298300425549227, 4.5664434428191685, -0.9132245224965572, 2.248149626811167, -0.8572398768800595, -1.6035749711231428, -3.0616308662451934, 12.377433530776676, -1.9700778388723394, -8.334946339181693, 7.891346469638391, 0.3015083552727561, 8.77051724435518, -1.8697068712482805, -5.034789063586926, -1.5812859581134475, 1.829091476106147, -0.3223933655579911, 2.239756389245796, 3.0152767684852613, -7.846957070194522, -0.31499837334832703, -3.1402877447469195, -9.845494546822557, -11.764921995586182, 9.666517359441825, -6.746825684597147, 4.490113468561879, 1.9850353265523115], [4.512168763851902, 4.433443515013964, 5.241779328381183, -2.4780552882720057, -0.5043568035014083, 0.8113072683993916, -3.4959782451763295, 4.296042294845583, 3.050421619160866, -0.9795474878684696, -3.908115785986161, 1.6880529927192063, 3.549159472067646, 3.6897372384396663, -0.41920927626665655, -1.203073388977516, 1.9170213617373635, 0.5644690625316755, -6.125278590319305, -9.489040784665567, 6.792750408067128, -4.830744324608949, 4.313653106482409, 3.0092593893647446, -7.088875245173558, -1.9245492520909304, -1.163077398470095, 1.9917895292142387, 1.0471137472827636, -9.378096130676175]]}