{"shapefile": "./UpperJakobshavn_17_11.exp", "epochs": 50000, "learning_rate": 0.001, "loss_function": "MSE", "data": {"ISSM": {"data_path": "./Models/UpperJakobshavn_issm2025-Jan-17_1.mat", "data_size": {"u": 5000, "v": 5000, "s": 5000, "H": null, "C": null}}, "ft": {"data_path": "UpperJakobshavn_xyz_ds.mat", "data_size": {"H": 8000}, "X_map": {"x": "x", "y": "y"}, "name_map": {"H": "thickness"}, "source": "mat"}}, "num_collocation_points": 10000, "equations": {"MOLHO": {"scalar_variables": {"B": 200000000.0}, "data_weights": [99451929600.0, 99451929600.0, 9945192960000.0, 9945192960000.0, 5e-06, 1e-06, 1e-08], "output_lb": [-0.00031709791983764585, -0.00031709791983764585, -3.1709791983764586e-06, -3.1709791983764586e-06, -1000.0, 10.0, 0.01], "output_ub": [0.00031709791983764585, 0.00031709791983764585, 3.1709791983764586e-06, 3.1709791983764586e-06, 4000.0, 4000.0, 10000.0], "variable_lb": [-0.00031709791983764585, -0.00031709791983764585, -3.1709791983764586e-06, -3.1709791983764586e-06, -1000.0, 10.0, 0.01], "variable_ub": [0.00031709791983764585, 0.00031709791983764585, 3.1709791983764586e-06, 3.1709791983764586e-06, 4000.0, 4000.0, 10000.0]}}, "activation": "tanh", "initializer": "Glorot uniform", "num_neurons": 20, "num_layers": 6, "input": ["y", "x"], "fft": true, "sigma": 5, "num_fourier_feature": 30, "save_path": "./PINNs/UpperJakobshavn_issm2025-Jan-17_1_pinn25-Jan-21_1G", "is_save": true, "is_plot": true, "B": [[-3.212696315101634, -1.0274402337524704, 8.36345318217519, 1.6125168938709111, 3.848743728307115, 5.2672931431863095, 1.2969962166773237, 1.0870829361683925, 2.721138430331154, 4.0741677723918555, 3.4223104731368403, 6.405092370545036, 13.241632750110702, 8.25069299274665, 6.461653514601748, 2.4636945739835143, 5.558148994659882, -5.581667436034357, 3.296553459828273, 1.6560934339068625, 6.041922941610692, -2.902658042678663, 7.963290247200825, 2.433250173702999, 5.71887940093834, 5.041477466940148, -2.4639172500460544, 3.668273819543101, -6.178882350306125, 5.123735874926714], [6.054951318425737, 4.057330651934547, -1.586546027195794, 4.447406912753003, -9.109561495381584, -2.1168062330815105, 0.6905832167964914, -7.814326258082497, 8.383161054629038, 1.6660554947809179, 2.5985199010420716, -3.173251884075141, -6.069678293559785, -6.661221851340767, -6.6278232310567144, -9.69948595619346, 6.6436657869739, 1.421024281922424, 0.87287048598699, 2.806758177298558, 2.9258128382995405, -1.276635414197755, -1.75943019501669, 0.5943786914744971, 1.5640225682079372, 0.9446262799906792, -10.004262896901803, -0.228631157589805, -4.17737374517324, -3.4735557849536924]]}