{"shapefile": "./Ryder_32_09.exp", "epochs": 200000, "learning_rate": 0.001, "loss_function": "MSE", "data": {"ISSM": {"data_path": "./Models/Ryder_issm2024-Dec-19_3.mat", "data_size": {"u": 8000, "v": 8000, "s": 8000, "H": null, "C": 8000}}, "ft": {"data_path": "Ryder_xyz_ds.mat", "data_size": {"H": 8000}, "X_map": {"x": "x", "y": "y"}, "name_map": {"H": "thickness"}, "source": "mat"}, "velbase": {"data_path": "./Ryder_vel_base_ms.mat", "data_size": {"u_base": 8000, "v_base": 8000}, "name_map": {"u_base": "md_u_base", "v_base": "md_v_base"}, "X_map": {"x": "x", "y": "y"}, "source": "mat"}}, "num_collocation_points": 16000, "equations": {"MOLHO": {"scalar_variables": {"B": 200000000.0}, "data_weights": [100000000000.0, 100000000000.0, 100000000000.0, 100000000000.0, 1e-05, 1e-06, 1e-08], "output_lb": [-6.341958396752917e-06, -6.341958396752917e-06, -6.341958396752917e-06, -6.341958396752917e-06, -1000.0, 10.0, 0.01], "output_ub": [6.341958396752917e-06, 6.341958396752917e-06, 6.341958396752917e-06, 6.341958396752917e-06, 4000.0, 4000.0, 10000.0], "variable_lb": [-6.341958396752917e-06, -6.341958396752917e-06, -6.341958396752917e-06, -6.341958396752917e-06, -1000.0, 10.0, 0.01], "variable_ub": [6.341958396752917e-06, 6.341958396752917e-06, 6.341958396752917e-06, 6.341958396752917e-06, 4000.0, 4000.0, 10000.0]}}, "activation": "tanh", "initializer": "Glorot uniform", "num_neurons": 20, "num_layers": 6, "input": ["y", "x"], "fft": true, "sigma": 5, "num_fourier_feature": 30, "save_path": "./PINNs/Ryder_issm2024-Dec-19_3_pinn25-Jan-31_8Gc", "is_save": true, "is_plot": true, "B": [[-0.6348430237334033, -3.0940743404055566, -0.5707630016889309, -3.1069766285067493, -6.601355194276957, -4.428202610596586, -4.9318928578023815, 1.9561907940173173, 4.5175850736908965, -3.7212001767477725, 9.266123858335854, -3.351021145124382, 5.107940797044611, 5.374875172257375, -4.268233020281428, -1.0287502261748593, -0.7793735569695897, -2.8818073995028053, 0.045038204167157585, -9.310161338208548, -6.341279844406229, -1.812631866445512, 2.3365653450372874, -5.218400514224232, 7.1960372082199795, -7.624007425664016, -1.4888181911344465, -1.4334457624858776, 0.7599324690412418, -4.32027801910813], [-0.3248617334268016, 0.020562002124512743, -7.686216554656442, -1.3105143501549332, 2.1175515408498455, -3.991800856262006, -2.9019288770481855, -5.651340447330372, 5.531575588846004, 7.762603076685992, -7.882251659289345, 5.8075619375870176, -0.5985121440384444, -1.5193058708866594, 0.354008029920384, -5.818833310953702, -10.296918905173936, -3.1708367037231167, -5.380369412776864, -2.5074138703660243, 0.3149254832622344, 4.218222164974638, 4.190185586216782, 0.8996628704091814, -4.450875052221852, -0.9655037812854332, -8.20278543816782, 3.8613594635422235, -4.499088742985718, -7.61269706773787]]}