{"shapefile": "./Ryder_32_09.exp", "epochs": 100000, "learning_rate": 0.001, "loss_function": "MSE", "data": {"ISSM": {"data_path": "./Models/Ryder_issm2024-Dec-19_3.mat", "data_size": {"u": 8000, "v": 8000, "s": 8000, "H": null, "C": null}}, "ft": {"data_path": "Ryder_xyz_ds_vel_base.mat", "data_size": {"H": 10000, "u_base": 1000, "v_base": 1000}, "X_map": {"x": "x", "y": "y"}, "name_map": {"H": "thickness", "u_base": "u_base", "v_base": "v_base"}, "source": "mat"}}, "num_collocation_points": 16000, "equations": {"MOLHO": {"scalar_variables": {"B": 200000000.0}, "data_weights": [99451929600.0, 99451929600.0, 9945192960000.0, 9945192960000.0, 5e-06, 1e-05, 1e-08]}}, "activation": "tanh", "initializer": "Glorot uniform", "num_neurons": 20, "num_layers": 6, "input": ["y", "x"], "fft": true, "sigma": 5, "num_fourier_feature": 30, "save_path": "./PINNs/Ryder_issm2024-Dec-19_3_pinn25-Jan-14_1G", "is_save": true, "is_plot": true, "B": [[0.36727419373878145, 0.6415448694720381, 6.110195142565175, -2.806037515046434, -4.508585530985328, -1.8216788395309147, 1.09020379058267, -3.219898096962172, -3.7857384587476366, 0.9731128061217625, 3.0050191902216, -4.603722142935601, 5.801434586464108, -2.852052151801808, 6.772090022461677, 9.912623813895607, -3.1851845045641896, -4.228471884756347, -1.7596899207818326, -1.3047042341275181, -1.7367941581057746, 8.439055251693802, -2.25803929411339, -1.0328367485614878, -2.0332160973262936, 6.100049303395318, -4.060785928708811, -1.5651251593178397, 8.457829802168149, 2.197952113335374], [-2.720564986272999, 0.25968271553561423, 0.057770820408600716, -7.023176759865294, -2.767108067440965, -4.2062603444007465, -4.703709224597702, -0.16839659273734592, 6.922150199921607, 10.210104407731473, -1.3242155680021537, -5.486484389538768, 2.648065839143126, 4.404857450651269, 8.921724541539636, 2.621213018165953, 3.5748888919495276, -6.457878257202081, -3.612736108034955, -11.169643380761878, -3.0337732148080123, 1.9892646850099194, 2.1422395383311947, -7.952167946602451, 4.39326285198075, 6.712966655568145, -3.024489010842386, 8.95637235307541, -1.8560402276280483, 2.387726957539499]]}