{"shapefile": "./Ryder_32_09.exp", "epochs": 150000, "learning_rate": 0.001, "loss_function": "MSE", "data": {"ISSM": {"data_path": "./Models/Ryder_issm2024-Dec-19_3.mat", "data_size": {"u": 8000, "v": 8000, "s": 8000, "H": null, "C": null}}}, "num_collocation_points": 16000, "equations": {"MOLHO": {"scalar_variables": {"B": 200000000.0}, "data_weights": [99451929600.0, 99451929600.0, 99451929600.0, 99451929600.0, 1e-06, 1e-06, 1e-08], "pde_weights": [1e-16, 1e-16, 1e-16, 1e-16], "output_lb": [-4.54292703799824e-06, -4.54292703799824e-06, -4.54292703799824e-06, -4.54292703799824e-06, -1000.0, 10.0, 0.01], "output_ub": [4.54292703799824e-06, 4.54292703799824e-06, 4.54292703799824e-06, 4.54292703799824e-06, 4000.0, 4000.0, 10000.0], "variable_lb": [-4.54292703799824e-06, -4.54292703799824e-06, -4.54292703799824e-06, -4.54292703799824e-06, -1000.0, 10.0, 0.01], "variable_ub": [4.54292703799824e-06, 4.54292703799824e-06, 4.54292703799824e-06, 4.54292703799824e-06, 4000.0, 4000.0, 10000.0]}}, "activation": "tanh", "initializer": "Glorot uniform", "num_neurons": 20, "num_layers": 6, "input": ["y", "x"], "fft": true, "sigma": 5, "num_fourier_feature": 30, "save_path": "./PINNs/Ryder_issm2024-Dec-19_3_pinn25-Feb-07_8G", "is_save": true, "is_plot": true, "B": [[-4.42084292828404, 0.13734564881890554, -3.948016217016109, -6.458919373784364, 4.899669952186427, 3.9474990815150166, -1.191699012561895, -2.7800974187555876, 0.09113642079225126, 0.9218116459897367, -1.6389919619554432, 8.012282805743817, 5.9681287727003, -5.634411138313347, 5.490158327891343, 8.431720860519022, 3.1387212365604205, -8.258167707747685, 3.132706029094596, 7.984896009050186, 7.215937790424343, 2.2042225557785993, 4.607617494029647, 3.158745213394616, 3.808516499244694, -0.8974217415751086, 0.4854234210263963, 3.3667093949274642, -4.49365940064602, 2.224869848755881], [1.7920425979002916, 5.056517375204239, -3.571627419898948, 4.877535069334103, -11.617159845126153, 2.9091158080124178, 2.2287856248046034, -6.881355970845931, 1.1360685300096076, -2.7358684591436355, -6.489531202902247, -2.4188511894750304, -5.083526491133768, 0.2763482018331056, -1.8194961721399758, 4.206783837285005, -4.600528589748855, 5.928419400588286, 0.8808062789176029, -4.156946372383724, -4.41596293641048, 6.1451208918411915, 6.097674202750024, -6.217693051938121, -7.220867324994664, -5.748338203866234, -1.2341028365938456, 5.171224062771319, -9.474772803582242, 4.5487751531715945]]}