{"shapefile": "./Ryder_32_09.exp", "epochs": 100000, "learning_rate": 0.001, "loss_function": "MSE", "data": {"ISSM": {"data_path": "./Models/Ryder_issm2024-Dec-19_3.mat", "data_size": {"u": 8000, "v": 8000, "s": 8000, "H": null, "C": 8000}}, "ft": {"data_path": "Ryder_xyz_500.mat", "data_size": {"H": 8000}, "X_map": {"x": "x", "y": "y"}, "name_map": {"H": "thickness"}, "source": "mat"}, "velbase": {"data_path": "./Ryder_vel_base_ms.mat", "data_size": {"u_base": 8000, "v_base": 8000}, "name_map": {"u_base": "md_u_base", "v_base": "md_v_base"}, "X_map": {"x": "x", "y": "y"}, "source": "mat"}}, "num_collocation_points": 16000, "equations": {"MOLHO": {"scalar_variables": {"B": 100000000.0}, "data_weights": [99451929600.0, 99451929600.0, 99451929600.0, 99451929600.0, 5e-06, 5e-06, 1e-08], "output_lb": [-4.54292703799824e-06, -4.54292703799824e-06, -4.54292703799824e-06, -4.54292703799824e-06, -1000.0, 10.0, 0.01], "output_ub": [4.54292703799824e-06, 4.54292703799824e-06, 4.54292703799824e-06, 4.54292703799824e-06, 4000.0, 4000.0, 10000.0], "variable_lb": [-4.54292703799824e-06, -4.54292703799824e-06, -4.54292703799824e-06, -4.54292703799824e-06, -1000.0, 10.0, 0.01], "variable_ub": [4.54292703799824e-06, 4.54292703799824e-06, 4.54292703799824e-06, 4.54292703799824e-06, 4000.0, 4000.0, 10000.0]}}, "activation": "tanh", "initializer": "Glorot uniform", "num_neurons": 20, "num_layers": 6, "input": ["y", "x"], "fft": true, "sigma": 5, "num_fourier_feature": 30, "save_path": "./PINNs/Ryder_issm2024-Dec-19_3_pinn25-Feb-05_10G", "is_save": true, "is_plot": true, "B": [[-4.661062576297656, 9.46011796008952, -0.04076264832416636, -0.5131366526418766, 2.556923538722697, 7.367004644224108, -9.342810249433445, 11.672364838010035, -6.071804066132355, -3.5950934029125015, -1.179782871993311, -0.8563023034244964, -6.574781151307798, -4.487270346462488, -10.965970361582265, -7.260944336671664, -4.2634647351023975, 6.848740026087931, -3.5668716592055483, 4.660150666513406, -7.739002203675773, 2.432477978560836, -4.7565872263526225, -1.0076246668420483, 0.17405248212345292, -7.976191666073146, -6.694776852603656, -2.1781778664040607, -3.6550863704770746, 3.5991529046595767], [-1.3983018290234128, 3.3614537882066586, -3.735741752943195, -3.562434750054377, -8.571314042974906, -2.984932968033431, -6.8710716726043355, -0.3811184229423731, 3.373455533816946, 4.54744862319412, 4.1108826454005305, -0.7139335182049174, -0.37645458122529907, 7.091204327095378, 2.1269915625375697, 0.9141723499209063, 3.8452287532426532, -2.9141717664858073, -1.2150121250807646, 7.132485828874727, 2.936498302205636, -2.88212490788186, 3.986474962016349, 5.532432864567962, -7.806439619315663, 8.328613069012219, 3.3093897049385115, 4.1634757066622745, -0.9880526707068706, 1.8199015599135322]]}