{"shapefile": "./Ryder_32_09.exp", "epochs": 200000, "learning_rate": 0.001, "loss_function": "MSE", "data": {"ISSM": {"data_path": "./Models/Ryder_issm2024-Dec-19_3.mat", "data_size": {"u": 8000, "v": 8000, "s": 8000, "H": null, "C": null}}, "ft": {"data_path": "Ryder_xyz_ds.mat", "data_size": {"H": 10000}, "X_map": {"x": "x", "y": "y"}, "name_map": {"H": "thickness"}, "source": "mat"}, "velbase": {"data_path": "./Ryder_vel_base_ms.mat", "data_size": {"u_base": 4000, "v_base": 4000}, "name_map": {"u_base": "md_u_base", "v_base": "md_v_base"}, "X_map": {"x": "x", "y": "y"}, "source": "mat"}}, "num_collocation_points": 16000, "equations": {"MOLHO": {"scalar_variables": {"B": 200000000.0}, "data_weights": [99451929600.0, 99451929600.0, 9945192960000.0, 9945192960000.0, 5e-06, 1e-05, 1e-08], "output_lb": [-0.00031709791983764585, -0.00031709791983764585, -3.1709791983764586e-06, -3.1709791983764586e-06, -1000.0, 10.0, 0.01], "output_ub": [0.00031709791983764585, 0.00031709791983764585, 3.1709791983764586e-06, 3.1709791983764586e-06, 4000.0, 4000.0, 10000.0], "variable_lb": [-0.00031709791983764585, -0.00031709791983764585, -3.1709791983764586e-06, -3.1709791983764586e-06, -1000.0, 10.0, 0.01], "variable_ub": [0.00031709791983764585, 0.00031709791983764585, 3.1709791983764586e-06, 3.1709791983764586e-06, 4000.0, 4000.0, 10000.0]}}, "activation": "tanh", "initializer": "Glorot uniform", "num_neurons": 20, "num_layers": 6, "input": ["y", "x"], "fft": true, "sigma": 5, "num_fourier_feature": 30, "save_path": "./PINNs/Ryder_issm2024-Dec-19_3_pinn25-Jan-23_1G", "is_save": true, "is_plot": true, "B": [[-3.800925432921378, 8.244465931057983, 5.333926398671255, -3.81920827061927, 3.8160574747180904, -0.846953378081401, -8.557321759930014, -0.2811924241640328, -1.0734232187317945, -8.436230708975685, 1.5859096060996416, -3.009220508195316, 0.8227059468318331, -7.257537081794121, -3.0882810222375214, 6.021888669114251, 4.474243533251868, 3.711311109001463, -1.2060789472559055, 3.1564428920806966, -0.20875573194321376, -5.789274136827717, -3.0083253064084303, -1.8944526951609117, 1.5730422808986235, 9.379804734010753, -6.568316801003434, 0.17064972671946246, 4.081495430073836, -4.5189150278610155], [2.995991561615183, -0.3149442558011948, 0.3557252020912613, -1.861762889873452, -4.480574996549389, -3.977225785826848, 6.495609512435695, 10.301865615134558, -5.694284471692815, 8.131918895439059, 0.8945571973093281, -5.046877135217472, -9.256005714917855, -3.0986279546467483, 9.353972975983393, -5.102601995852362, -7.306541829151911, 2.510723587599761, 1.1853872273707982, 3.9964435537902765, 5.510795072767926, -0.7535255832341599, -3.31110142377075, 4.7461800722107785, 0.10814473692718381, 1.2259766988803529, 5.797185462757364, -5.053088829027343, 4.403291314959344, -9.65644114962859]]}