{"data": {"ISSM": {"data_path": "./Models/Ryder_test_I19-Dec-2024_3.mat", "data_size": {"u": 10000, "v": 10000, "s": 10000, "H": null, "C": 10000, "B": 10000}}, "ft": {"data_path": "./Ryder_xyz_ds.mat", "data_size": {"H": 20000}, "name_map": {"H": "thickness"}, "X_map": {"x": "x", "y": "y"}, "source": "mat"}}, "epochs": 50000, "learning_rate": 0.0005, "loss_function": "MSE", "save_path": "./PINNs/Ryder_test_I19-Dec-2024_3_P20-Dec-24_2", "is_save": true, "is_plot": true, "activation": "tanh", "initializer": "Glorot uniform", "num_neurons": 20, "num_layers": 6, "input": ["y", "x"], "shapefile": "./Ryder_32_09.exp", "num_collocation_points": 20000, "equations": {"SSA_VB": {"scalar_variables": {"B": 200000000.0, "n": 3}, "data_weights": [99451929600.0, 99451929600.0, 5e-06, 5e-06, 5e-08, 1e-16]}}, "fft": true, "sigma": 5, "num_fourier_feature": 30, "B": [[-3.9175938659919796, 2.867182931603984, -2.7595743194338103, -1.1451482411784186, -6.30758458243765, 1.9590302666744903, -2.941909674264335, 0.5270029345189388, -5.988879906131752, -6.265291551352079, -1.926560822018062, -2.0887207204290483, -1.0453642268746612, -5.9043917998326805, 4.61421568066694, -15.26856786466942, 6.58240616595786, 5.596457504670852, 4.265292384135824, 3.659040181502784, -7.515207578424027, -3.2604275559318703, -2.544825558281864, -0.5833238872007486, -2.113133554059128, -0.579850556774066, -3.6495246226349916, -2.9754069832454864, -0.20785482003131556, -8.834018322747868], [-0.12374119894064142, -0.8322684092713385, 3.216354439992451, -2.6652932790384694, -0.23490054464470506, -6.924998220274304, -4.927132861459578, -5.303436438845016, -8.917910190350117, -4.048020261145167, -5.907665518157631, 15.32701136359736, 0.10310268047194271, -8.2716387035231, -5.6394058554826865, -10.04520252863749, 5.768993106428955, -6.166900983229348, -0.0362481047520852, -4.3188237577059745, -0.9063660641072286, 1.3598125998856094, -1.6247319528859996, 9.911216784820537, 7.287808103867426, 1.2534154854633144, 7.256112938469988, -2.655568692724759, -9.055278591038924, 0.9174207110885889]]}