{"shapefile": "./Ryder_32_09.exp", "epochs": 100000, "learning_rate": 0.001, "loss_function": "MSE", "data": {"ISSM": {"data_path": "./Models/Ryder_issm2024-Dec-19_3.mat", "data_size": {"u": 8000, "v": 8000, "s": 8000, "H": null, "C": null}}, "ft": {"data_path": "Ryder_xyz_500.mat", "data_size": {"H": 8000}, "X_map": {"x": "x", "y": "y"}, "name_map": {"H": "thickness"}, "source": "mat"}, "velbase": {"data_path": "./Ryder_vel_base_ms.mat", "data_size": {"u_base": 4000, "v_base": 4000}, "name_map": {"u_base": "md_u_base", "v_base": "md_v_base"}, "X_map": {"x": "x", "y": "y"}, "source": "mat"}}, "num_collocation_points": 16000, "equations": {"MOLHO": {"scalar_variables": {"B": 200000000.0}, "data_weights": [99451929600.0, 99451929600.0, 99451929600.0, 99451929600.0, 5e-06, 5e-06, 1e-08], "output_lb": [-4.54292703799824e-06, -4.54292703799824e-06, -4.54292703799824e-06, -4.54292703799824e-06, -1000.0, 10.0, 0.01], "output_ub": [4.54292703799824e-06, 4.54292703799824e-06, 4.54292703799824e-06, 4.54292703799824e-06, 4000.0, 4000.0, 10000.0], "variable_lb": [-4.54292703799824e-06, -4.54292703799824e-06, -4.54292703799824e-06, -4.54292703799824e-06, -1000.0, 10.0, 0.01], "variable_ub": [4.54292703799824e-06, 4.54292703799824e-06, 4.54292703799824e-06, 4.54292703799824e-06, 4000.0, 4000.0, 10000.0]}}, "activation": "tanh", "initializer": "Glorot uniform", "num_neurons": 20, "num_layers": 6, "input": ["y", "x"], "fft": true, "sigma": 5, "num_fourier_feature": 30, "save_path": "./PINNs/Ryder_issm2024-Dec-19_3_pinn25-Feb-05_6G", "is_save": true, "is_plot": true, "B": [[-1.5167515207523592, 4.223471704008696, -2.9044057206833624, 2.4575619781721687, -7.894285846743633, -1.5188432859760035, 2.166389124598872, 0.18552736212221113, -1.9420899459568262, 5.5087439548412895, -2.2926058196597228, -0.29004929061188944, 3.7037196891324986, 1.153694546181007, -0.04041136518127298, -4.617755744344936, -2.9643042634945855, -7.169637119785886, 5.812727246475758, 6.502242748450825, 1.6555864380245784, 5.007588487783748, 8.161870388874245, 0.4767568364645603, 1.4451225798771925, 8.080235277291965, -5.087585109079459, -4.360547330367732, 0.925746941285356, -6.083992409419104], [-2.5362976882485757, 3.7801155967585416, 2.6367688737167287, 16.65389443453398, 2.641311209017519, -10.160707996404362, 6.49311915662099, -1.231330246364514, -1.0473013324630673, -0.0804092032137686, -8.094297207157995, 1.7131138557237162, -7.587957163078488, -7.645347824752754, -5.292222411173343, 4.947091431597259, -12.661735225190691, 0.8688497875632195, -5.6397140240082315, 2.0657862459272747, -3.3176133766965066, 8.041686594329692, -2.184008358745646, -0.2272738757674007, 1.7856215782083182, -0.7518059115992147, 0.6049185344422802, -2.2416384335157606, -13.080763041276073, -0.8974457057811205]]}