{"shapefile": "./Ryder_32_09.exp", "epochs": 150000, "learning_rate": 0.001, "loss_function": "MSE", "data": {"ISSM": {"data_path": "./Models/Ryder_issm2024-Dec-19_3.mat", "data_size": {"u": 8000, "v": 8000, "s": 8000, "H": null, "C": null}}, "velbase": {"data_path": "./Ryder_vel_base_ms.mat", "data_size": {"u_base": 8000, "v_base": 8000}, "name_map": {"u_base": "md_u_base", "v_base": "md_v_base"}, "X_map": {"x": "x", "y": "y"}, "source": "mat"}}, "num_collocation_points": 16000, "equations": {"MOLHO": {"scalar_variables": {"B": 200000000.0}, "data_weights": [99451929600.0, 99451929600.0, 99451929600.0, 99451929600.0, 1e-06, 1e-06, 1e-08], "pde_weights": [1e-16, 1e-16, 1e-16, 1e-16], "output_lb": [-4.54292703799824e-06, -4.54292703799824e-06, -4.54292703799824e-06, -4.54292703799824e-06, -1000.0, 10.0, 0.01], "output_ub": [4.54292703799824e-06, 4.54292703799824e-06, 4.54292703799824e-06, 4.54292703799824e-06, 4000.0, 4000.0, 10000.0], "variable_lb": [-4.54292703799824e-06, -4.54292703799824e-06, -4.54292703799824e-06, -4.54292703799824e-06, -1000.0, 10.0, 0.01], "variable_ub": [4.54292703799824e-06, 4.54292703799824e-06, 4.54292703799824e-06, 4.54292703799824e-06, 4000.0, 4000.0, 10000.0]}}, "activation": "tanh", "initializer": "Glorot uniform", "num_neurons": 20, "num_layers": 6, "input": ["y", "x"], "fft": true, "sigma": 5, "num_fourier_feature": 30, "save_path": "./PINNs/Ryder_issm2024-Dec-19_3_pinn25-Feb-06_4G", "is_save": true, "is_plot": true, "B": [[1.0326569580664966, -7.682411669837007, 6.54835734132098, -7.917542114066132, -3.2084414117331765, 1.3045720904105305, -5.557569859848157, 0.3110417840518586, -0.054907155431260915, 6.584276464814229, -6.899534909601856, 3.9446502666311933, -3.0466679681562403, 2.7190603791141266, 5.581375208027463, 1.134151236796613, -5.392848745736939, 2.493459792138726, 1.2140901488433289, -2.449112871617216, 3.9425546645969227, 1.173866181720529, -14.29635361270444, 8.120085831017851, 1.8816683734974284, 3.9853276397007638, -3.939504382831246, 1.9645301051239379, -1.3998446289463062, -9.066997443257673], [0.8337695485313561, 2.3269325212949017, 14.1041772693531, 4.233654373512551, 0.7830176107529121, 1.1600015336985736, -7.149816430951907, 0.7094030635637267, 0.1722165064833191, -1.5300361346988538, 2.363576716424434, -3.6645810963159504, 0.8022765041352691, 7.4317910273273675, 1.6159305852845014, 6.4452275110138135, 3.4636971609419707, -8.989952982584397, -1.5677955426955053, 2.512840272029828, -0.19318233662243361, -4.175912334299997, -2.2016980702363704, 4.6783846074697735, -0.23395835303046994, -2.3103973521423926, -11.246130636134835, 1.849549301016435, 5.400939990343834, -4.915250973938472]]}