{"shapefile": "./Ryder_32_09.exp", "epochs": 100000, "learning_rate": 0.001, "loss_function": "MSE", "data": {"ISSM": {"data_path": "./Models/Ryder_issm2024-Dec-19_3.mat", "data_size": {"u": 8000, "v": 8000, "s": 8000, "H": null, "C": 8000}}, "ft": {"data_path": "Ryder_xyz_500.mat", "data_size": {"H": 8000}, "X_map": {"x": "x", "y": "y"}, "name_map": {"H": "thickness"}, "source": "mat"}, "velbase": {"data_path": "./Ryder_vel_base_ms.mat", "data_size": {"u_base": 4000, "v_base": 4000}, "name_map": {"u_base": "md_u_base", "v_base": "md_v_base"}, "X_map": {"x": "x", "y": "y"}, "source": "mat"}}, "num_collocation_points": 16000, "equations": {"MOLHO": {"scalar_variables": {"B": 200000000.0}, "data_weights": [99451929600.0, 99451929600.0, 99451929600.0, 99451929600.0, 5e-06, 5e-06, 1e-08], "output_lb": [-4.54292703799824e-06, -4.54292703799824e-06, -4.54292703799824e-06, -4.54292703799824e-06, -1000.0, 10.0, 0.01], "output_ub": [4.54292703799824e-06, 4.54292703799824e-06, 4.54292703799824e-06, 4.54292703799824e-06, 4000.0, 4000.0, 10000.0], "variable_lb": [-4.54292703799824e-06, -4.54292703799824e-06, -4.54292703799824e-06, -4.54292703799824e-06, -1000.0, 10.0, 0.01], "variable_ub": [4.54292703799824e-06, 4.54292703799824e-06, 4.54292703799824e-06, 4.54292703799824e-06, 4000.0, 4000.0, 10000.0]}}, "activation": "tanh", "initializer": "Glorot uniform", "num_neurons": 20, "num_layers": 6, "input": ["y", "x"], "fft": true, "sigma": 5, "num_fourier_feature": 30, "save_path": "./PINNs/Ryder_issm2024-Dec-19_3_pinn25-Feb-05_9G", "is_save": true, "is_plot": true, "B": [[0.4390894454837952, -10.110373571881501, -1.9384113068406172, 1.6818099302227807, 0.6240236980217102, -5.957045787389815, 4.7921844627367225, -5.432028290928268, -2.623109779328083, -2.513264155263358, -5.628398147619006, 3.1415672934429706, 9.378399450246574, -6.567016642992314, 5.590050181889113, -3.307719782774714, 8.09047016763638, 1.000922800088722, -0.5641353625466952, -2.4714845838284942, -0.5688067086767584, -3.1601609346998356, -0.81586446658436, 6.198673185632711, -2.069715794960044, 1.821415729908279, -4.389597920711362, -2.6974218444593228, -0.7820840377772056, -1.16127598130427], [-6.160712465941912, 9.206878160673153, -2.8666655239513883, 8.534795182782764, 0.008697886679935447, -1.487249127122774, -5.317826420026119, -9.310741022588893, 4.91349164065615, 5.149635547520134, -4.11532868442356, -3.949597587887909, 2.5602757892983385, -2.3982916969041512, 4.17451124504881, -8.074501215814477, 3.37895016628325, -1.725330283709321, -2.5467137258976287, 2.5915232032291105, -0.09683436327857836, -7.449878474037066, -1.4148857520035434, -0.5223116739956483, -2.537488863192446, 1.1796680204113767, 6.563646443151, 9.435732248603486, -0.9508993226086905, -0.016362585282740195]]}